svm_type c_svc
kernel_type rbf
gamma 0.35360000000000003
nr_class 6
total_sv 5799
rho -0.61301598598004381 -0.5795487072138521 -0.95016296571275727 -0.89233126749229585 -0.56733957575016702 -0.029302784070070219 -0.92497850002272153 -0.71893059836356876 0.022117999321641876 -0.92245674779211262 -0.74617796847351747 0.075052809884074909 0.1515738189541741 0.95392294106176734 0.73546469109968182
label 0 2 3 4 5 1
nr_sv 1207 1203 1648 294 422 1025
SV
0.37239636700636425 0.39468078850343291 0.0483964581131857 0.1038553009104087 0.41761966402537887 1:1.0314178 2:-1.1463472 3:1.8276458 4:-0.21255479 5:2.5615101 6:5.8385309 7:6.6117285 8:6.2661571 9:-0.57257613 10:-0.36907896 
0.015959273073276551 0.27157918428380201 0.064215848336861905 0.078156196278970094 0.18102947637159542 1:-0.058833526 2:-0.28174737 3:0.38798574 4:0.74235238 5:0.10703548 6:-3.6744543 7:-1.318951 8:-0.36477917 9:0.08202173 10:0.45711353 
0 0.64749133979131834 0 0 0 1:0.11777165 2:-0.49418846 3:1.0600183 4:1.9494707 5:1.0601547 6:-0.65515218 7:0.17298788 8:0.19156783 9:-2.6837332 10:1.0429276 
0 0.68929236116292036 0 0.88489118532316013 0 1:0.79856465 2:-0.69874332 3:1.032111 4:0.38507132 5:0.89789094 6:0.22824117 7:3.2525733 8:2.9604146 9:0.046718722 10:0.32068409 
0.059659721652670389 0.069784753274921493 0.012289698377912696 0.043126478951002606 0.28301069837799836 1:1.5435971 2:-1.2135763 3:2.1753533 4:0.28684858 5:5.2258193 6:-2.4909683 7:2.6606872 8:2.7640309 9:-1.0927496 10:0.82304463 
0.66611689076243552 0.40082656617849977 0.047938757111477451 0.1029729101578819 0.41587925399519804 1:-2.0140381 2:4.3522278 3:-1.2730338 4:5.0075503 5:-0.81404875 6:4.1542729 7:0.58158141 8:-0.37847328 9:0.74712888 10:-0.55966927 
0 0 0 0 0.39892295550592666 1:-2.2216126 2:4.8796077 3:-1.7130261 4:4.6567524 5:-0.87954178 6:-0.067891174 7:-0.6348321 8:-0.49759205 9:-0.30393718 10:-0.63391171 
0.38709216863954093 0.42043190836075023 0.049956971103742545 0.10731583865072666 0.43293926334933203 1:-0.24395221 2:1.5634852 3:0.80215542 4:6.7387475 5:0.28631314 6:-0.24734209 7:-0.26436771 8:-0.20572625 9:2.7543692 10:4.3367605 
2 0 0 0 1.1863397251532839 1:-2.3099199 2:3.6252095 3:-1.8688271 4:2.1291861 5:-0.93315955 6:-0.083157703 7:-0.65470683 8:-0.50852122 9:-0.26284854 10:-0.51368986 
0.287985974112766 0 0 0 0 1:-2.34002 2:4.3881044 3:-1.6714571 4:4.0739886 5:-0.89931765 6:-0.05735152 7:-0.64659058 8:-0.50744319 9:-0.30743827 10:-0.52387089 
0.67647679825250906 0.45393590572734777 0.049428088139892801 0.10425675619444311 0.94194219449716976 1:1.2153218 2:-0.62793152 3:2.2407818 4:1.818013 5:2.0322545 6:-3.6790747 7:0.25284393 8:0.72845475 9:-5.7554181 10:3.7575314 
0.31560381998780218 0.39336352187366441 0.02858044312489081 0.067460232354206659 0.53205114811290033 1:0.78208871 2:-0.23249252 3:1.3749249 4:1.7497415 5:0.82915586 6:2.4729533 7:3.3428277 8:2.6506505 9:3.247033 10:0.78946055 
0.48926206797883948 0.97120219018723086 0 0 0.61425613861143591 1:1.5507514 2:-1.2445938 3:2.5726239 4:-0.088790983 5:4.9274604 6:-0.7485399 7:2.6157803 8:2.4361094 9:-0.059628338 10:1.0014329 
0.24167306034721972 0.28852620968871578 0.031886981618103293 0.066940628402416172 0.10193466851095336 1:-1.599818 2:3.3082836 3:-0.92640705 4:2.8053107 5:-0.79410491 6:1.0983907 7:-0.20447871 8:-0.39944696 9:-2.6981565 10:1.2702849 
2 0 0 0 0 1:-2.2315072 2:3.7257105 3:-1.4293064 4:2.6388837 5:-0.90873204 6:-0.29639939 7:-0.71151526 8:-0.5104179 9:-0.24089754 10:-0.55764014 
2 0 0 0 0 1:-1.5487592 2:1.1399086 3:-0.93582735 4:1.0200155 5:-0.73772772 6:-0.7422374 7:-0.84453076 8:-0.52371929 9:-0.34340676 10:-0.59596232 
2 0 0 0 0 1:-1.1943946 2:1.0729306 3:-1.2330875 4:1.2087789 5:-0.64153695 6:-0.43416012 7:-0.74066286 8:-0.50656111 9:-0.22486705 10:-0.53301513 
0.066259020385479525 0.093428671675284986 0 0.021531206829537474 0 1:-1.6979519 2:2.3827017 3:-0.49005025 4:4.498521 5:-0.63047215 6:-0.01830157 7:-0.41752797 8:-0.35494748 9:-0.40312904 10:0.94683759 
2 0 0 0 0 1:-2.4398404 2:4.6713089 3:-1.6375655 4:3.5719402 5:-0.93455687 6:0.072105241 7:-0.58539692 8:-0.48790826 9:-0.38912511 10:-0.52749266 
2 2 0 0 2 1:-1.1157202 2:1.1556318 3:-0.79187027 4:0.86368023 5:-0.68563979 6:0.13481086 7:-0.57540709 8:-0.49192668 9:-0.30758004 10:-0.51063248 
0.27482573982969766 0.27830664765024871 0.032567198066941722 0 0.2582761662753833 1:0.59514634 2:-0.37515583 3:1.229229 4:2.9576595 5:1.614207 6:0.057605232 7:1.2563299 8:0.97515367 9:-3.2651395 10:1.5289105 
0.50329309800156197 0.36462668005744608 0.044366884695380082 0.090825060886553496 0.37901756638296114 1:0.99252656 2:-0.96142206 3:2.1505749 4:3.3842536 5:5.6353728 6:-0.10389634 7:0.98678163 8:0.76544727 9:-1.0192918 10:1.9521427 
2 0.021402606417565379 0 0 0 1:-2.5495339 2:1.3673888 3:-1.538801 4:1.5631285 5:-0.89768348 6:-0.45492005 7:-0.64318565 8:-0.43702393 9:-0.2624323 10:-0.56549762 
2 0 0 0 0 1:-2.6817346 2:0.83491381 3:-1.2378792 4:1.3687653 5:-0.89669733 6:0.15171689 7:-0.48550984 8:-0.43235866 9:-0.32302056 10:-0.47539747 
2 0 0 0 0 1:-2.6031382 2:0.66240279 3:-1.0826081 4:1.4273463 5:-0.860221 6:-0.036996148 7:-0.54831267 8:-0.44336172 9:-0.29551455 10:-0.57365215 
2 0 0 0 0 1:-2.5887289 2:1.1200467 3:-1.5244753 4:1.2050074 5:-0.90683987 6:-0.14162617 7:-0.52856726 8:-0.41159689 9:-0.61739905 10:-0.50551443 
0.85714957232841194 2 0.26999222702983661 0.58690941263999896 0.8930360684708859 1:1.063842 2:-1.1872846 3:0.86408358 4:-1.1925901 5:0.98448693 6:1.7395424 7:2.5114613 8:1.8870112 9:0.12719987 10:0.56241279 
0.20662722220425744 0.31050903539362762 0.029378391619030504 0.079927857292881321 0.28059758807723473 1:-1.4738585 2:3.532868 3:-0.68144623 4:3.6008 5:-0.74264874 6:-1.1029704 7:-0.53973009 8:-0.25733217 9:-2.7574257 10:0.71326907 
0.39946827110893551 0.23211927745055067 0 0.051965080011780074 0.23465542291625235 1:-0.2245722 2:1.1354947 3:0.69728712 4:2.2929738 5:-0.2796051 6:0.10453331 7:-0.27064825 8:-0.27103581 9:3.2365891 10:2.0753315 
1.4364784394353369 0 0 0 0 1:-2.1783023 2:3.5314133 3:-1.3665073 4:1.5889025 5:-0.93499704 6:-0.13212983 7:-0.60323642 8:-0.46485818 9:0.40821389 10:-0.2319126 
0.54539187316205784 0.34007971902491912 0.045249077110285758 0.096936505141004589 0.35781172188714605 1:-0.18148102 2:-0.070637742 3:-0.33752288 4:0.32681769 5:-0.24385094 6:-5.5874973 7:3.3422311 8:3.9520274 9:-0.64937833 10:0.0104765 
2 1.5538434484917947 0 0 2 1:-0.8637638 2:1.4840798 3:-0.559763 4:1.6695008 5:-0.58944672 6:0.36099822 7:-0.25020781 8:-0.30106547 9:0.18167641 10:0.19082536 
1.6223305913126433 0.90327776110984503 0 0.21324043741573318 2 1:1.5587534 2:-1.1296307 3:2.3675229 4:0.31349809 5:3.8447256 6:-0.28140966 7:0.75975082 8:0.60212756 9:1.0849808 10:1.6899637 
0.49830352699167479 0.16587667071255083 0 0 0.58287137089382057 1:0.3303897 2:0.59575114 3:0.79392139 4:2.4811388 5:0.14543912 6:0.24985278 7:2.2740667 8:1.9127919 9:2.0622967 10:0.91193648 
2 2 0 0 2 1:-0.59190695 2:0.74542664 3:-0.30269589 4:0.33210373 5:-0.61198548 6:0.68349034 7:-0.42027857 8:-0.48019159 9:-0.39478055 10:-0.52798846 
0.45908212246662661 0.67637644236263395 0.063333546521705586 0.053316073833303383 0.12902960192269353 1:1.3863589 2:-0.88898791 3:2.4674324 4:1.6281016 5:3.3129462 6:1.9067716 7:1.5038196 8:0.86669678 9:1.4121714 10:1.9563785 
1.1624977057139034 0.047586863552342318 0 0.23945866365611548 0.347096179117936 1:1.6154374 2:-1.1581061 3:2.6997347 4:0.48577169 5:4.6966199 6:-0.32090675 7:2.3810692 8:2.1203842 9:0.33234988 10:0.52639458 
0.84215376518652152 1.9529047398685984 0.031863356075238047 0.091074992985244269 0.71326451929258894 1:1.2445264 2:-0.90002977 3:1.6649351 4:-0.34836994 5:0.99866065 6:-3.8261828 7:0.26583773 8:0.75999242 9:-4.1506504 10:2.3732578 
0.77227811467305407 0.20767911773261741 0.018512331086281628 0.088120195539648782 0.95956932981884835 1:-1.3104979 2:1.3761 3:-0.45230784 4:1.1075019 5:-0.71830098 6:-0.60758534 7:-0.36827809 8:-0.2192538 9:3.6677881 10:3.7851664 
0.078251060619662166 1.34390219624611 0.35864466960808622 0.10372506669509822 0.91472813732052394 1:0.072214075 2:-0.69487166 3:0.88869904 4:-0.64253878 5:-0.1030828 6:-0.67555014 7:3.1770646 8:3.0310412 9:-0.32002299 10:0.37702007 
0 0.072471100470410624 0.042377374712885545 0.069802381081901912 0.20560241227027443 1:-0.51777887 2:1.6954654 3:0.17050016 4:3.6130903 5:-0.30054684 6:0.83234433 7:-0.092421863 8:-0.26869459 9:-1.7597994 10:0.30827995 
0 0.85702862861389839 0 0 0 1:0.52705408 2:-0.26753379 3:0.51474816 4:0.74215496 5:0.29161951 6:0.11756415 7:0.12019353 8:0.018547286 9:-2.3928899 10:1.8882622 
0.14773258839067802 0.010817354472350297 0 0 0 1:0.8651344 2:-0.90447277 3:2.1759958 4:1.1153455 5:2.4039845 6:0.87335316 7:3.7181755 8:3.3806172 9:0.44611319 10:0.64597614 
0.029840486982310614 0.066940549758756129 0.0025457706400598412 0 0.2475640963638398 1:1.325381 2:-0.86421518 3:1.7374284 4:0.67631571 5:2.0410987 6:1.6201569 7:4.3574594 8:4.0181331 9:-0.32454951 10:0.27039401 
0.29476405298593972 0.34294036372979064 0.042317432652225435 0.061238324451663051 0.34520227503065282 1:1.6683601 2:-1.2299393 3:2.4781934 4:0.17267186 5:5.4599811 6:-4.5939167 7:2.4808992 8:2.88458 9:-1.0174207 10:1.0040708 
0.88526129866907055 0.20061229130641639 0.029265869555314055 0.062277394683397415 0.2505162142432143 1:-0.81113664 2:1.4521177 3:0.12098119 4:2.0098634 5:-0.52957356 6:5.650265 7:1.1463916 8:-0.21092746 9:-0.61107117 10:-0.673341 
1.44992691059019 0 0.91329866506231239 0 0 1:-0.59655489 2:2.0245687 3:0.38325036 4:2.8067669 5:-0.48763251 6:-0.86786156 7:-0.44266619 8:-0.22838997 9:-0.10577672 10:-0.37535904 
2 0 0 0 2 1:-2.015068 2:2.4736787 3:-1.744078 4:0.56877561 5:-0.93011005 6:-0.34994935 7:-0.6211534 8:-0.43981979 9:-0.58634733 10:-0.61673537 
0 0.26840598806759797 0 0 0.017237656194098568 1:-0.20006976 2:0.089148195 3:0.7219766 4:0.9342576 5:-0.14993771 6:0.18563541 7:1.515247 8:1.1888533 9:-3.212498 10:1.6966464 
0.076102217143603837 0.53139263373585899 0 0 0.27705627253834147 1:-0.096791136 2:-0.14326053 3:0.54440284 4:-0.054846515 5:-0.31508726 6:2.6340503 7:3.5310954 8:2.834806 9:1.1431554 10:0.35351076 
0.12293320612046228 1.0222331206517419 0.066969237446237839 0 0.363770501528975 1:1.1645125 2:-0.96127272 3:1.9921958 4:-0.26023889 5:1.3088686 6:2.6182514 7:4.4201291 8:3.9077652 9:0.17844417 10:0.078260613 
0 1.1377983787541481 0 0 0 1:0.38154528 2:-0.61138162 3:0.96757474 4:0.26326696 5:0.45348635 6:0.82191113 7:0.52125498 8:0.21146514 9:2.7809207 10:2.2817864 
0.62304769220357348 0.44570063892527129 0 0 0 1:0.77262397 2:-0.7062735 3:1.8117308 4:0.83665109 5:1.2566766 6:0.08202742 7:1.357371 8:1.062106 9:-3.6146668 10:1.766778 
2 2 0 0 0 1:-0.74978211 2:-0.34970863 3:-0.29955632 4:0.13141179 5:-0.28493172 6:-0.62647155 7:-0.57465524 8:-0.36095666 9:-0.15716232 10:-0.5511364 
2 0 0 0 0 1:-0.97261462 2:0.49280679 3:-0.020966359 4:0.95946278 5:-0.50602536 6:0.43373248 7:-0.29242837 8:-0.34447296 9:-0.067183672 10:-0.5756107 
2 2 0 0 2 1:-1.3324693 2:2.0324834 3:-1.1003949 4:0.85574172 5:-0.81051184 6:-0.13132073 7:-0.61094096 8:-0.47028866 9:-0.19448775 10:-0.3355835 
2 2 0 0 2 1:-0.44290185 2:1.3368855 3:0.036250942 4:1.7559949 5:-0.46908505 6:-0.3073436 7:-0.68031598 8:-0.48743329 9:0.10962008 10:-0.41902956 
2 2 0 0 2 1:-1.3658219 2:1.5324989 3:-1.0165515 4:0.33353539 5:-0.82425139 6:0.27680874 7:-0.55193549 8:-0.50050508 9:0.061600081 10:-0.46399534 
2 0 0 0 1.005643533809865 1:-1.0632328 2:1.6149201 3:-0.45940906 4:1.356807 5:-0.6805383 6:0.13283068 7:-0.52329854 8:-0.45545663 9:-0.51861962 10:-0.45954407 
2 2 0 0 2 1:-0.55781797 2:0.20015483 3:-0.63192221 4:-0.27078417 5:-0.60567487 6:0.4010702 7:-0.46658198 8:-0.46278374 9:-0.24401719 10:-0.52525281 
0.36642925648675356 0.40014894183130156 0.047437732188668279 0.10212144150196661 0.50780101728670657 1:1.5421361 2:-1.0734421 3:2.3268423 4:2.3313669 5:6.6445193 6:-4.8660953 7:4.1447274 8:4.8000836 9:-0.18465959 10:-0.13628611 
2 0 0 0 0 1:-1.7798971 2:2.5730158 3:-1.0258777 4:1.2486263 5:-0.86952485 6:-0.013489525 7:-0.63821546 8:-0.50931003 9:-0.24739782 10:-0.51207297 
0.31829197598607917 0.19558008607924279 0.041821283752630722 0.083918912766244302 0.185632051621586 1:1.3950263 2:-0.98053052 3:1.6885452 4:1.720936 5:4.2305412 6:-1.7811492 7:6.1065483 8:6.9579036 9:-0.58609794 10:-0.33402015 
0.1933782423733611 0.32733386754417221 0.02494992098165167 0.063206584389154219 0.047727113556563443 1:-1.084022 2:2.9947761 3:-0.11756837 4:3.3796001 5:-0.64798157 6:2.2224928 7:0.3888739 8:-0.1538453 9:0.3908943 10:-0.07658215 
2 0 0 0 1.4005984121091668 1:-2.2616357 2:4.6943857 3:-1.4025682 4:2.8606549 5:-0.93213744 6:-0.40228565 7:-0.69604274 8:-0.48189847 9:-0.14709819 10:-0.62752248 
0.30331725300687529 0 0 0 1.4911327182547081 1:-1.7280937 2:4.0476368 3:-1.1899134 4:3.390225 5:-0.82139051 6:0.023857047 7:-0.53288108 8:-0.44318493 9:0.40571884 10:0.087060086 
2 0 0 0 1.0196788984284038 1:-2.1082333 2:3.263897 3:-1.4906507 4:1.5104513 5:-0.92237609 6:0.23403265 7:-0.53809394 8:-0.48341189 9:-0.55230564 10:-0.5643477 
2 0 0.0015305924487427982 0.0066256991174640095 0 1:-2.5042249 2:4.8552263 3:-1.7435312 4:2.1555676 5:-0.97942796 6:-0.24666074 7:-0.6081879 8:-0.44858535 9:-0.052823265 10:-0.56694237 
0.33150508843168885 0.066686066087549234 0 0 0.20634465448838271 1:0.7917209 2:-0.065351115 3:1.5835339 4:1.6924169 5:0.58518286 6:-1.9788689 7:1.6529563 8:1.6778019 9:2.3468112 10:1.3204799 
0.13036322734094799 0.35213082667740359 0.030197968042845413 0.047819118804459312 0.28865397676449434 1:0.2764833 2:0.89408477 3:0.37836833 4:3.214606 5:0.14451471 6:0.51098069 7:1.5545014 8:1.168094 9:2.5337654 10:1.6536473 
0.38272340821593859 0.41172156594535092 0.049137758969696188 0.1055981152924076 0.42082802798777291 1:0.95715103 2:-0.034496085 3:2.0805723 4:2.8541026 5:1.1224219 6:0.7913142 7:0.29488149 8:0.035575394 9:6.6429531 10:7.8770855 
2 0 0 0 2 1:-2.2757333 2:4.4212321 3:-1.7150309 4:2.3945453 5:-0.941131 6:-0.022879399 7:-0.59634435 8:-0.47897786 9:-0.28716503 10:-0.61747712 
2 0 0 0 0 1:-1.8364631 2:2.3381447 3:-1.0774502 4:0.88547042 5:-0.88676808 6:0.21455026 7:-0.53634181 8:-0.47878777 9:-0.030137199 10:-0.59543164 
2 0 0 0 2 1:-1.3929011 2:2.4118016 3:-0.93526447 4:1.5570304 5:-0.78853221 6:0.082368096 7:-0.56513251 8:-0.47570227 9:-0.18725652 10:-0.47639607 
1.8448551982769739 0 0 0 0 1:-2.0299217 2:3.4384488 3:-1.3113373 4:1.7924584 5:-0.90735737 6:-0.1673046 7:-0.65970348 8:-0.49742932 9:-0.21664292 10:-0.50771873 
2 0 0 0 2 1:-0.46978657 2:1.3566102 3:0.090251508 4:1.608123 5:-0.50122706 6:-0.55011761 7:-0.6095635 8:-0.39787705 9:1.0269693 10:-0.1218609 
0.32155131705406564 0.34120215781921365 0.041589138109441585 0.089357558102581239 0.3727032069550632 1:1.7363444 2:-1.2309405 3:2.8180304 4:0.89603625 5:7.6331425 6:-1.5906476 7:4.7579195 8:5.0828097 9:-0.88027445 10:0.032046639 
0 0.18652335698905717 0 0 0.10710521578092255 1:1.329628 2:-1.1335267 3:1.7826796 4:-0.32489864 5:2.4466492 6:-3.2861266 7:4.962259 8:5.6117941 9:-0.56088753 10:-0.091018344 
0.42675671508765745 1.4814109217747506 0 0 0.47770122811333449 1:1.2570581 2:-0.9719591 3:1.6276655 4:0.015883434 5:1.766916 6:1.437214 7:1.4238462 8:0.88030676 9:3.1218553 10:1.7377623 
0.34928154321393562 0.55125650194279485 0.057677220033902188 0.099368851824792465 0.75420255075200626 1:0.064499909 2:1.6364091 3:0.16434653 4:4.0417537 5:-0.061885081 6:-0.34043172 7:2.8455641 8:2.6113706 9:-0.31882197 10:0.84831197 
2 2 0 0 2 1:-0.72610722 2:0.49513804 3:-0.6271535 4:-0.23648125 5:-0.69168568 6:0.085455469 7:-0.56635912 8:-0.47708704 9:-0.4727882 10:-0.3668697 
2 2 2 2 2 1:0.21143034 2:0.66504881 3:0.16861027 4:1.6898868 5:-0.12611143 6:-0.17158434 7:-0.40593747 8:-0.32029308 9:0.57750633 10:-0.33527179 
0 0 0 0.11236443775551007 0.076841762692367227 1:1.171193 2:-0.75242159 3:1.8071188 4:1.715499 5:2.4271564 6:-2.5161144 7:1.5543177 8:1.6694822 9:0.76892872 10:0.062254468 
2 2 0 0 2 1:-0.36299875 2:0.6181915 3:-0.84298911 4:0.31174409 5:-0.54961435 6:0.11243273 7:-0.52899958 8:-0.45587227 9:-1.1253959 10:-0.11738667 
2 2 1.7912580766650266 2 0 1:1.2704955 2:-1.046563 3:2.1293713 4:-0.44803194 5:1.5399604 6:0.10930277 7:1.4076195 8:1.1031429 9:0.7334907 10:0.22114933 
1.0404687244831816 2 0.73100524913313747 0.61440702890159204 0.038004472734513045 1:0.84057608 2:-0.62548793 3:1.3905539 4:-0.1238597 5:0.3835656 6:0.58693008 7:1.2078814 8:0.83887928 9:2.319975 10:1.3161919 
2 2 1.9378497082344006 0.63002523781719555 2 1:0.35239651 2:-0.076234391 3:0.63717709 4:0.012036213 5:-0.22955489 6:0.99178055 7:0.038987981 8:-0.19855196 9:1.2987514 10:0.1648616 
0.38256978519440299 0.41558765151146937 0.04961854023133172 0.10614717023936603 0.42729514370438382 1:1.6834138 2:-1.2616395 3:2.4939813 4:1.3281796 5:10.060368 6:0.88197652 7:4.0687908 8:3.7977701 9:-0.52759058 10:0.21847293 
2 0 0 0 0.26802818042187226 1:-1.5021955 2:3.5990789 3:-0.75697656 4:3.1143415 5:-0.77917246 6:0.9307996 7:-0.37203775 8:-0.49024289 9:-0.17743147 10:-0.41866384 
2 0 0 0 0 1:-1.4657175 2:1.9713779 3:-0.81517401 4:1.0415494 5:-0.80663851 6:-0.24536191 7:-0.64875159 8:-0.4765675 9:-0.42014186 10:-0.51415463 
0.33778485228559646 0 0 0 0 1:-2.1469244 2:2.6936583 3:-0.76771056 4:3.1279567 5:-0.83018855 6:0.33110393 7:-0.29383919 8:-0.32742284 9:-1.5311711 10:0.65393201 
2 0 0 0 2 1:-1.8236145 2:2.9830966 3:-1.4071406 4:1.6175533 5:-0.87339603 6:-0.1938773 7:-0.68722619 8:-0.51155834 9:-0.29414751 10:-0.51830232 
1.1938038553930732 1.524195898265996 0 0 1.7419680914393072 1:-0.86834376 2:1.1406166 3:-0.58824587 4:0.63699952 5:-0.67540368 6:-2.3925769 7:-1.1431302 8:-0.44930011 9:0.98469163 10:0.17992326 
0 0.16996170746577832 0.79637955310387609 0.57487330606790688 0.18192492650052386 1:0.26507612 2:0.43491602 3:0.54121636 4:3.5709356 5:0.53091803 6:-0.7515634 7:-0.56340471 8:-0.33216183 9:-1.3154384 10:-0.17923103 
0 0.025540000609650327 0.011328774207078758 0.016312620944047021 0 1:-2.5635974 2:4.3635832 3:-1.2770524 4:4.7097381 5:-0.91780688 6:0.6257884 7:-0.41472448 8:-0.46598184 9:-0.13220823 10:-0.44744991 
0.36860179858032377 0.31287686156538019 0.0240968475691207 0.076800136366275945 0.35115826755418961 1:0.72731244 2:-0.53476909 3:1.869469 4:2.8661109 5:2.1046821 6:-2.1147772 7:3.720099 8:3.8865243 9:-1.1566484 10:0.25834655 
0.44679277917484883 0.11187306986753683 0.013070190473271447 0.076849773534274607 0.052095888181284022 1:-1.2463069 2:1.9473611 3:-0.19721114 4:4.9708391 5:-0.40408961 6:0.73210051 7:-0.35748223 8:-0.44419766 9:-0.44922507 10:-0.37433807 
0.43714770633127725 0.56734611407823943 0 0.22101201007330745 0 1:1.0112581 2:-0.71983873 3:1.9042309 4:1.5478955 5:2.0249882 6:-0.83615743 7:2.2180771 8:2.0420397 9:0.21815198 10:1.188092 
0 0.96544994526696715 0 0 0 1:0.029101864 2:-0.37493982 3:-0.34818752 4:-0.57601167 5:-0.35979007 6:-0.65178801 7:1.6943766 8:1.5001233 9:-0.97315675 10:0.34628008 
2 2 0 0 2 1:-0.33238339 2:-0.00901307 3:-0.98412489 4:-0.48659311 5:-0.56440176 6:0.44043953 7:0.13051567 8:-0.030107386 9:0.10807644 10:0.28645187 
2 1.797101411629064 0 0 2 1:-0.62739571 2:0.71644997 3:-0.65348956 4:0.54991049 5:-0.57082404 6:-0.15486994 7:-0.42520343 8:-0.33681459 9:-1.5831969 10:0.64629983 
0 0.091184214769840677 0 0 0 1:0.19234266 2:-0.30882326 3:0.20984559 4:-0.099284154 5:-0.15500789 6:0.018384943 7:0.77235221 8:0.56110409 9:-0.20433866 10:1.1470076 
0 0 0 0 2 1:-1.3786744 2:1.2199177 3:-1.0284196 4:0.41515566 5:-0.78750083 6:0.3933837 7:-0.33061076 8:-0.36485412 9:-1.5101201 10:-0.080232827 
0 2 0 0 0 1:-0.33239393 2:0.10651974 3:-0.10319329 4:0.19517967 5:-0.40720592 6:0.046107427 7:-0.18579924 8:-0.19898852 9:-0.63573965 10:0.16302436 
1.2463979543089925 0 0 0 0 1:-1.5484728 2:1.657337 3:-1.2676956 4:1.4619693 5:-0.75400466 6:-0.29162993 7:-0.46676102 8:-0.34265153 9:-1.409086 10:0.39560123 
2 2 0 0 2 1:-0.30128714 2:0.13603164 3:-0.43722547 4:-0.31462823 5:-0.55693715 6:0.41214216 7:-0.092002287 8:-0.19364595 9:-0.48282876 10:0.99833116 
0 0 0 0 2 1:-1.5979796 2:2.1773165 3:-1.4630595 4:0.63439812 5:-0.86886821 6:-0.10381117 7:-0.41304056 8:-0.33699771 9:-0.93956082 10:0.23995226 
2 2 0 0 0.75180833219059029 1:-0.31832203 2:-0.13672853 3:-0.14180671 4:-0.41360509 5:-0.48898638 6:-0.71170434 7:-0.30050845 8:-0.15311004 9:-0.12751674 10:0.80463046 
0 0.35216555794498605 0 0.060275687615952443 0.96026377479241032 1:-0.094198725 2:-0.40798536 3:-0.35995883 4:-0.61469851 5:-0.38113459 6:0.42068034 7:0.028306007 8:-0.10472588 9:-2.7600327 10:3.2236108 
0.38795785819341128 0.49701555188405777 0.083642716236138032 0.11765406547811691 0.42967433363827146 1:-0.059316772 2:-0.40341839 3:0.28292825 4:-0.18783036 5:-0.18323224 6:2.1249956 7:5.8210942 8:5.8688173 9:-0.88115102 10:-0.27147069 
0 0.77752301339085872 0.12493721771130903 0.68446101335797149 0 1:-0.044463408 2:0.21536777 3:0.43051266 4:0.48783647 5:-0.30798866 6:-3.0393497 7:0.70265365 8:0.99767704 9:-0.52676835 10:-0.37541963 
0 0 0.0054821797757249359 0.020575150709935933 0 1:-2.1307671 2:2.499449 3:-1.5417216 4:0.66459132 5:-0.93761722 6:1.2021052 7:-0.17742824 8:-0.39845719 9:-1.7988453 10:0.3001873 
0 2 0.31641022452754552 0.37769805210607854 0 1:0.18027924 2:-0.19822045 3:0.82375282 4:0.079347333 5:-0.16351434 6:-1.4160087 7:1.1532403 8:1.1310277 9:0.22803436 10:-0.31619893 
0 0 0 0 1.4304657855629113 1:-1.4807467 2:1.6409238 3:-0.77691436 4:0.51944728 5:-0.82881455 6:1.5929241 7:-0.070480658 8:-0.39096355 9:-1.2046084 10:0.11184508 
0 0 0 0 2 1:-2.4870737 2:3.5904924 3:-2.0051105 4:1.1585312 5:-0.98175541 6:-0.17675835 7:-0.5871088 8:-0.44608282 9:-0.78428878 10:-0.052749823 
2 0 0 0 2 1:-2.4060568 2:4.5478348 3:-1.8424222 4:2.0273453 5:-0.96774741 6:-0.21900213 7:-0.5848145 8:-0.4372478 9:-0.7109508 10:-0.21150215 
2 0 0 0 2 1:-1.2203206 2:1.044144 3:-0.84698485 4:0.10309782 5:-0.78483327 6:0.20264791 7:-0.46440323 8:-0.42643784 9:-1.2970716 10:0.055997774 
0 0 0 0 1.9017005653765175 1:-2.1307161 2:3.5825201 3:-1.5730804 4:1.5834568 5:-0.93161885 6:-0.15425246 7:-0.577892 8:-0.44359765 9:-0.71141376 10:-0.18366481 
1.507928183704812 0.043625001104778176 0 0 0 1:-1.1506312 2:1.762229 3:-0.5412712 4:1.185014 5:-0.72991821 6:0.12908325 7:-0.46412608 8:-0.41341043 9:-2.5192081 10:0.94632081 
0 0 0 0.019631184871842618 0.73807617219774868 1:-1.8639569 2:2.7792845 3:-1.2365116 4:1.205613 5:-0.89157534 6:-0.94302314 7:-0.7209196 8:-0.40776774 9:-1.665256 10:0.37542007 
0 0 0 0 1.1165693030839046 1:-2.1799981 2:3.5971695 3:-1.7408529 4:2.0011093 5:-0.92150906 6:0.9510911 7:-0.29639176 8:-0.43962257 9:-1.3289506 10:0.10582785 
0 0 0 0 1.7351253422636994 1:-2.3674909 2:4.2175027 3:-1.6509584 4:2.3133684 5:-0.94906541 6:-0.35403746 7:-0.59843206 8:-0.42352541 9:-1.3164711 10:0.17663733 
0.46146019808554045 0.72681650088587346 0 0 0 1:-0.28144312 2:0.31024908 3:0.14793748 4:0.43541624 5:-0.41170711 6:0.004204318 7:-0.092270644 8:-0.12255594 9:-2.1025504 10:1.3548157 
0.11055144791235157 0.15686441691739009 0 0 0 1:0.48021847 2:0.1653174 3:1.4644641 4:1.6516707 5:0.23651914 6:0.034290239 7:1.0696479 8:0.8137375 9:3.6050971 10:2.3341817 
2 2 0 0 1.6630891790873421 1:-0.307864 2:0.43813772 3:0.37120747 4:0.13852866 5:-0.53149507 6:0.22225805 7:-0.14910814 8:-0.20265784 9:2.2060107 10:1.7571911 
2 0 0 0 2 1:-2.0110606 2:4.5444881 3:-1.3470323 4:3.3203949 5:-0.88224957 6:0.42249018 7:-0.181654 8:-0.26179294 9:-0.35244046 10:-0.45119703 
0.22097068678354459 0.34333181288617193 0.040964316411168065 0.087978463648852964 0.3377268090354128 1:-2.5874524 2:7.0019635 3:-1.9634936 4:5.1693413 5:-0.96313346 6:-0.56761982 7:-0.65948533 8:-0.42904867 9:-1.0450495 10:-0.10078355 
0 0 0 0.035019614185581159 0 1:-1.8046343 2:3.1642991 3:-1.191961 4:1.7116161 5:-0.87419883 6:0.032842368 7:-0.30184942 8:-0.28113852 9:1.4595002 10:0.33583747 
0 0.035867539575853542 0 0 0 1:-0.42524964 2:-0.4682579 3:0.1704538 4:-1.1725719 5:-0.65228193 6:-0.33617328 7:0.70940188 8:0.56929198 9:-0.66911533 10:1.0310319 
0 0.72050368256425479 0 0 2 1:-1.6825109 2:1.7602478 3:-1.3255094 4:1.0446344 5:-0.81931737 6:0.76497571 7:-0.32094704 8:-0.42388161 9:-1.0381576 10:-0.21656927 
2 0 0 0 2 1:-1.7221671 2:3.666314 3:-1.053319 4:2.7007288 5:-0.83587549 6:-0.11794921 7:-0.55098391 8:-0.43123958 9:-0.48856761 10:-0.2139058 
0 0.16988057515673963 0 0.052464439366871674 0.048009174258672939 1:-1.2040783 2:2.8330394 3:-0.41073062 4:2.226448 5:-0.74222636 6:-0.37164613 7:-0.26388305 8:-0.18413358 9:2.3273493 10:0.9224407 
1.2367712613014883 0 0 0 0 1:-2.5006401 2:4.4165766 3:-1.7608535 4:2.1858679 5:-0.9709841 6:0.37624346 7:-0.38807356 8:-0.40290416 9:-1.1272179 10:-0.13404117 
0 0.060037780405722704 0 0 0.14035764154142572 1:-0.14070272 2:0.79897581 3:0.7165272 4:1.930266 5:-0.21563733 6:-0.019089382 7:0.27513816 8:0.16273404 9:1.4490244 10:1.2290237 
1.5882260950541158 0 0 0 1.3816444896204179 1:0.7006161 2:-0.38895499 3:1.6955208 4:0.64377563 5:0.45346957 6:-0.38838183 7:1.1537325 8:0.9604236 9:2.8795192 10:2.4138738 
0.49393791303853946 0.13530768042385746 0.014554477900974937 0.032588457538801539 0.26291465273970616 1:-2.2478587 2:5.0284392 3:-1.6153287 4:3.9863139 5:-0.9066988 6:0.54617675 7:-0.33137592 8:-0.39240437 9:-1.3290379 10:-0.0024769019 
2 0.38951577580776098 0 0 1.4348345880431956 1:-0.65228003 2:0.50183553 3:0.094375471 4:0.39171202 5:-0.55365833 6:0.75967394 7:0.41135768 8:0.13384004 9:2.243162 10:1.147432 
0.46430837186630142 0.50955018037989808 0.05260243952520046 0.37462358570159587 0.41765694768675105 1:1.2754462 2:-0.5799162 3:2.5145517 4:2.278386 5:2.2519244 6:-2.4499807 7:0.94319513 8:1.1116903 9:-1.8354452 10:0.32844249 
0.45784533268416555 0.16325220669479298 0.023286831945430062 0.049989140616136421 0 1:-2.3022706 2:4.3253652 3:-1.6409259 4:2.5299413 5:-0.93779786 6:1.4817361 7:-0.15630614 8:-0.43414457 9:-1.2398943 10:-0.022480481 
0.79113220650872074 0.49706379265171363 0.021740217457120081 0 0 1:0.45346186 2:-0.30141438 3:1.2524798 4:0.60027724 5:0.23725289 6:-1.2104961 7:3.0656529 8:2.9965668 9:-0.10527485 10:0.68958787 
0 0.99758980110868201 0 0.12440330144819083 0.41948079898167845 1:-0.3656516 2:2.042951 3:0.6456218 4:3.2220885 5:-0.39126773 6:0.23835498 7:0.27047066 8:0.11426539 9:1.0765099 10:0.21803202 
0 0 0 0 2 1:-1.8680001 2:2.1935477 3:-1.4362239 4:0.91144843 5:-0.88133163 6:0.17669268 7:-0.42188317 8:-0.39191868 9:-1.3474297 10:0.16013027 
0 0 0 0 0.44913685884866339 1:-2.5396134 2:3.7703918 3:-1.9098769 4:1.2751542 5:-0.9866854 6:-0.097466082 7:-0.52982431 8:-0.42008011 9:-0.9356413 10:-0.25366489 
0 0 0 0 1.7519516111199644 1:-1.7029884 2:1.4293726 3:-1.1939309 4:0.48314675 5:-0.84316863 6:0.16636594 7:-0.44395607 8:-0.40570901 9:-1.8040019 10:0.46520652 
0 0 0 0 0.17877195080277211 1:-1.9408732 2:1.9308223 3:-1.2780391 4:0.65553377 5:-0.89247363 6:-0.28781862 7:-0.55078795 8:-0.40194084 9:-1.4715962 10:0.21742829 
0.83583365396779863 0.20657696164870479 0 0.062337761307450182 0.95804914190552604 1:0.27083757 2:0.31483306 3:1.1520773 4:1.5725089 5:0.041014449 6:-0.1124771 7:0.45682119 8:0.32356763 9:4.560731 10:3.3437487 
0.85739490117533845 0.49480674715990797 0 0 0.28985228497151094 1:-1.2587776 2:0.13281321 3:-0.61722882 4:-0.63945236 5:-0.77591942 6:-0.03701744 7:-0.39030901 8:-0.3323935 9:-0.45724466 10:1.9076687 
0.66958498815004119 0.042305859407215235 0 0.019331086615612621 0 1:-1.1871739 2:1.181766 3:-0.72164047 4:2.1376763 5:-0.54212475 6:0.16936815 7:-0.062712246 8:-0.12920489 9:-2.5660727 10:1.9684381 
0 0.0032520649965224972 0.0026682725888302677 0 0 1:-2.4730468 2:4.6542895 3:-1.6398674 4:3.5730545 5:-0.93856554 6:-0.31070777 7:-0.54160002 8:-0.39165484 9:-1.4880558 10:0.1528281 
0 0.026024771463048255 0.010409689647750086 0.026663246117552164 0 1:-2.0113842 2:2.8985686 3:-1.5376804 4:1.5452923 5:-0.89612811 6:-0.075428624 7:-0.53383849 8:-0.42667351 9:-2.1906539 10:0.80779318 
0 0 0.0077142805687680435 0.014977754589836462 0.64776436577923358 1:-2.4040369 2:3.0306733 3:-1.7462776 4:0.96020449 5:-0.96810976 6:-0.13353512 7:-0.58511735 8:-0.45214642 9:-1.7666339 10:0.26008444 
1.6481692012538547 0.0098952926497854338 0 0.0093434706171161806 0.078709455483820634 1:-1.3219689 2:1.8373814 3:-1.322399 4:1.758307 5:-0.70828486 6:0.017128702 7:-0.38848628 8:-0.34047095 9:-0.64752503 10:1.9109008 
0 0 0 0 0.15449930018943597 1:-2.6468044 2:3.080288 3:-1.9942421 4:0.67899177 5:-1.000683 6:0.37660543 7:-0.42856344 8:-0.43168199 9:-1.2807557 10:0.05472388 
2 2 0 0 2 1:-1.0772431 2:0.69715588 3:-0.7693319 4:-0.006929965 5:-0.73480656 6:0.047789514 7:-0.35419984 8:-0.32133101 9:-0.48349113 10:-0.12435538 
0 0 0 0 0.44306003150216405 1:-2.1728595 2:4.1745866 3:-1.6764571 4:3.4860816 5:-0.88624005 6:0.17449958 7:-0.48570059 8:-0.43646602 9:-1.3897691 10:-0.0015424904 
2 1.3776806293943991 0 0 2 1:-0.78889537 2:0.49702307 3:-0.66977142 4:0.001801422 5:-0.65397117 6:-0.2037569 7:-0.55672688 8:-0.42045973 9:-1.3542771 10:-0.18213435 
0.19324802866317914 0.31812178096338456 0 0.0252889338923756 0.18448962433255112 1:-0.78139341 2:0.13429832 3:0.066586761 4:-0.029470574 5:-0.56564167 6:-1.6346587 7:3.4157141 8:3.4577879 9:-0.054465803 10:0.19383354 
0.12796337175509159 0.033142068394228272 0 0 0 1:-0.39319537 2:-0.34724208 3:-0.27802279 4:-0.51760145 5:-0.43779879 6:-0.26812331 7:1.7122484 8:1.4519241 9:-0.11019728 10:0.20860183 
0.20899539114188434 0.15574395195354743 0.017367656110495778 0.18524540816107316 0.25722132337149689 1:-0.67134485 2:0.62339133 3:-0.10741087 4:0.55820849 5:-0.55499302 6:-1.1537098 7:4.2066596 8:4.3167141 9:-0.81532502 10:0.066376759 
0 0.13914922557060341 0.0028835250483925812 0.056754737423971073 0.28808918848419551 1:-1.4970923 2:2.148188 3:-1.2505397 4:1.6486462 5:-0.77552352 6:2.5489452 7:0.65704219 8:0.0021158159 9:0.10886446 10:1.3293782 
2 0 0 0 2 1:-1.3326904 2:1.7381763 3:-1.1389171 4:0.92550094 5:-0.77942857 6:-0.10670691 7:-0.53937709 8:-0.4251252 9:-1.0117577 10:-0.37203928 
0 1.701961826436337 0 0 2 1:-1.3292548 2:1.3049003 3:-1.1698004 4:0.65734482 5:-0.76269292 6:-0.080091622 7:-0.32335702 8:-0.27708318 9:-0.40201281 10:0.23885976 
2 0.58199079939621856 0 0 2 1:-1.673207 2:2.9402121 3:-1.6260547 4:1.5654798 5:-0.85617264 6:0.33363771 7:-0.40992274 8:-0.41092939 9:-0.54530809 10:-0.49466447 
0.65616036108036646 0 0 0 2 1:-1.8626461 2:3.3613671 3:-1.5991127 4:1.9182273 5:-0.87900881 6:0.037335028 7:-0.50729871 8:-0.42770258 9:-0.49642297 10:-0.40791658 
2 2 0 0 2 1:-1.3276581 2:1.4974689 3:-1.3784257 4:0.5108729 5:-0.7981324 6:-0.38784952 7:-0.55898374 8:-0.39054554 9:-0.61579984 10:-0.40129472 
0 0.36882369878663834 0 0 0 1:-0.73341371 2:0.45334048 3:-0.82650531 4:0.61695426 5:-0.5097085 6:0.57664593 7:-0.057714379 8:-0.19714167 9:-2.1764442 10:1.6331205 
2 0 0 0 2 1:-1.4014689 2:2.4570714 3:-1.0433385 4:1.7895047 5:-0.77516946 6:0.31815825 7:-0.40236387 8:-0.40284824 9:-0.42397262 10:-0.039602476 
0 0 0 0.011530785630381154 0 1:0.86261526 2:-0.79519524 3:1.5052756 4:0.30874898 5:1.1351888 6:-0.12410266 7:3.6483568 8:3.4744504 9:0.40179043 10:0.41224788 
2 0 0 0 0 1:-1.9151602 2:2.5779414 3:-1.2844167 4:0.90939105 5:-0.90511205 6:-0.18252854 7:-0.54504814 8:-0.41601128 9:-0.26501013 10:-0.55069659 
0 2 0.041742316662091945 0 0.91011157722340419 1:-0.22518277 2:-0.31509916 3:-0.45225688 4:-0.292314 5:-0.3316916 6:-1.6907424 7:0.52237516 8:0.63938893 9:1.5443873 10:1.5787173 
1.5365080903117485 0 0.031455652629230113 0 0 1:0.38003787 2:-0.43692039 3:0.67962142 4:0.046820519 5:0.086210134 6:0.926967 7:2.6218545 8:2.1511767 9:0.11687033 10:1.1310064 
2 2 0 0 2 1:-0.64745897 2:0.29265854 3:-0.1623531 4:-0.50927644 5:-0.69854466 6:-0.44159111 7:-0.34797364 8:-0.23283737 9:0.16312809 10:-0.57545779 
0.34119999871539847 0.37406000776216819 0.046128609060343537 0.082842342512088135 0.5013872302060316 1:-0.0035174453 2:0.50441817 3:1.0200915 4:3.6226998 5:0.3777524 6:0.99399494 7:3.1279087 8:2.6852941 9:-2.6317489 10:0.60154382 
0 0.010099551704983121 0 0.004523983031986604 0.040353228063858534 1:-2.5320965 2:6.6167723 3:-1.8165233 4:4.8406351 5:-0.95623315 6:-0.8617294 7:-0.7331116 8:-0.42950636 9:-0.47369469 10:-0.41273618 
0 0 0 0 2 1:-1.8260405 2:2.1438284 3:-1.2785447 4:0.39666108 5:-0.90785795 6:-0.41378346 7:-0.63664458 8:-0.43954698 9:-0.80565476 10:-0.30580034 
2 0 0 0 2 1:-1.6766247 2:2.1354557 3:-1.1839823 4:0.55254841 5:-0.88107116 6:0.11364638 7:-0.46493071 8:-0.41128828 9:-0.56286985 10:-0.43430878 
2 1.9285123474512516 0 0 2 1:-1.3297756 2:1.6234831 3:-1.0039738 4:0.63527839 5:-0.79720144 6:0.15505977 7:-0.51769157 8:-0.45542526 9:-0.72618089 10:-0.33667363 
0.24520819740875141 0 0 0 0.7399672713730775 1:-1.2798495 2:1.8044007 3:-1.0929139 4:0.28342074 5:-0.84073679 6:-0.48002359 7:0.024105659 8:0.047889381 9:1.8403608 10:0.64497542 
0.23675026431032872 0.30247109527101768 0 0.44571985090123944 0 1:0.38692453 2:-0.47689463 3:1.2368575 4:1.1785348 5:0.7558598 6:1.0010001 7:2.3676687 8:1.8743591 9:-2.4402205 10:0.6809851 
2 0.086910501258774323 0.016387688684425406 0.03245240114654746 0.52693559405106538 1:-2.3304419 2:4.5443306 3:-1.671209 4:2.5821685 5:-0.94454706 6:-1.074311 7:-0.83287392 8:-0.46076255 9:-0.68937651 10:-0.033480387 
0 2 0 0 0 1:0.58576976 2:-0.6159793 3:0.57230768 4:0.14290638 5:0.46163382 6:-0.58561176 7:0.28638736 8:0.26842331 9:-0.69477948 10:-0.16253087 
2 2 0 0 0 1:-0.11189716 2:0.32380764 3:0.13358445 4:0.98804229 5:-0.23378289 6:-0.94975148 7:-0.13975102 8:0.0040532814 9:-0.83783621 10:-0.32491911 
2 2 0 0 2 1:-0.179145 2:0.40158027 3:-0.14652268 4:0.017415404 5:-0.52916034 6:1.2508431 7:0.10237875 8:-0.19721815 9:-0.48617496 10:-0.50930701 
2 0 0 0 2 1:-1.9252272 2:2.6221896 3:-1.7787402 4:0.66919316 5:-0.92135664 6:-0.10364083 7:-0.54007908 8:-0.42614125 9:-0.17919206 10:-0.19228219 
2 2 0 0 2 1:-0.70871813 2:0.43306206 3:-0.4040918 4:-0.35358843 5:-0.70120161 6:-0.10896389 7:-0.40608034 8:-0.33117438 9:-0.10034358 10:-0.51254475 
2 2 0 0 2 1:-0.35186888 2:0.59818618 3:-0.48970752 4:0.14303636 5:-0.57923459 6:0.47846746 7:-0.041149681 8:-0.16733207 9:0.16278565 10:-0.45247948 
0.12374190582908697 0.36925928050776835 0.55854820392444504 0.19740523129994436 0.098358252981374267 1:0.82121432 2:-1.1671624 3:1.2013214 4:-0.49465643 5:2.0788534 6:-0.83223966 7:4.2694544 8:4.3408555 9:-0.42109924 10:0.10713741 
0.29991808653760016 0 0 0 0.071603065260830226 1:-0.82920441 2:1.4805636 3:-0.34629847 4:1.5461788 5:-0.59846179 6:2.3804598 7:0.21050052 8:-0.32466317 9:0.71050431 10:-0.28715077 
2 2 0 0 2 1:-1.1989919 2:1.2939501 3:-0.80770405 4:0.11091517 5:-0.80769282 6:0.60775388 7:-0.32797746 8:-0.40089524 9:0.15722461 10:-0.3262156 
0.33115829988297552 0.36944414492637334 0.039759989365593017 0.051760231750604901 0.32299398083036879 1:0.031766095 2:1.1910498 3:-0.89003097 4:2.2707281 5:-0.23946886 6:-4.3874885 7:0.52202126 8:1.0447963 9:-2.3119268 10:0.92675712 
2 2 0 0 2 1:-0.92291375 2:0.84876714 3:-0.84590353 4:-0.28203373 5:-0.78034451 6:0.32028748 7:-0.26049099 8:-0.30138046 9:0.52358342 10:-0.17870854 
0.1404474661649171 0.74812076964911467 0.017118945328020881 0.025940006099233508 0.10065382088172622 1:1.151897 2:-0.87293744 3:1.8671597 4:0.22215269 5:1.4831273 6:-5.1835837 7:4.6257708 8:5.4442569 9:-0.32391052 10:0.017505075 
0.23667455287416425 0.33411917832096583 0.23762865791940097 0.04556372284791578 0.10616325884417929 1:1.6062122 2:-1.2593895 3:2.5474258 4:-0.49500752 5:4.1086821 6:2.9119352 7:3.6464668 8:2.9147188 9:-1.0351113 10:0.64347368 
0.52906450394069404 0.20528587636494683 0.011774769893718852 0.058235521168351907 0.70266034826605606 1:-1.6564501 2:4.310917 3:-1.3434237 4:3.8103273 5:-0.80392858 6:-1.7205941 7:-0.79583149 8:-0.33101765 9:-0.30342744 10:-0.52789004 
1.3721828340065492 0.14988011974239224 0.020414087788216743 0.034029709213590525 0.047195478510364645 1:-2.3375583 2:5.8115393 3:-1.6986996 4:4.3780509 5:-0.92681117 6:-0.79380718 7:-0.70337398 8:-0.42079948 9:-0.061192926 10:-0.61283232 
2 0.21769267816801816 0.027572441503045608 0.053993738322996969 0 1:-2.4761961 2:4.6024363 3:-1.7914538 4:2.1404318 5:-0.97286625 6:0.38676182 7:-0.069774795 8:-0.1725906 9:0.72377259 10:-0.3057419 
0.66465027938606769 0 0 0 0 1:-1.3980718 2:2.8864122 3:-1.1486349 4:2.2666197 5:-0.77134916 6:-0.53210438 7:-0.27851024 8:-0.16748482 9:0.53664839 10:-0.42094652 
0.062814481920085818 0 0 0 0 1:-0.51114624 2:0.48502015 3:0.44358613 4:2.4840698 5:-0.068008156 6:0.064014193 7:0.016854668 8:-0.050982063 9:-2.1823003 10:1.4169212 
0.20236669958409076 0.06395194247806775 0 0.49158175082094169 0.16696906857594318 1:0.6580015 2:-0.27360858 3:1.1926661 4:2.053797 5:0.98539139 6:-0.64050313 7:3.8810706 8:3.8369383 9:0.65157809 10:0.32200057 
0.92584424525016151 0.27474511285862602 0 0.14770665300963606 0.0050702796177077951 1:-0.48871393 2:0.90808315 3:0.30777166 4:1.7537154 5:-0.37151227 6:-2.6012407 7:-0.67120723 8:-0.10893255 9:-2.9351901 10:1.4690828 
2 0 0 0 2 1:-1.694231 2:2.3553011 3:-1.2189088 4:0.85677842 5:-0.87345606 6:0.22345041 7:-0.44004868 8:-0.41292308 9:-0.59668805 10:-0.37784298 
0 0 0 0 2 1:-1.8527476 2:3.3157197 3:-1.4640597 4:1.5263597 5:-0.89534825 6:0.23895116 7:-0.45758367 8:-0.4279898 9:-0.81303247 10:-0.29899409 
0.22174941267182724 0.08246208250271328 0.031434907193354435 0.065141264307080518 0.19970809039022017 1:1.4869941 2:-1.3254391 3:2.4659688 4:-0.76577555 5:4.8170311 6:-4.0705324 7:5.2589663 8:6.1210882 9:-0.063405135 10:-0.26013909 
2 2 0 0 2 1:-0.39036307 2:-0.031693993 3:-0.33060893 4:0.24759644 5:-0.34114692 6:-0.47936353 7:-0.60261582 8:-0.40508661 9:0.46963798 10:-0.39346348 
2 2 0 0 2 1:0.099464144 2:-0.20189226 3:0.076867761 4:-0.14016028 5:-0.2689226 6:0.6227862 7:-0.23824329 8:-0.33866469 9:-0.21940135 10:0.31155741 
0.72188122826518542 0 0 0 0 1:-2.7356777 2:3.3215732 3:-2.1737347 4:0.27737827 5:-1.0214076 6:-0.2591167 7:-0.53815015 8:-0.39808486 9:-0.47802747 10:-0.5441638 
2 0.16204114227332728 0 0 2 1:-2.0455072 2:2.3743116 3:-2.159113 4:0.012100311 5:-0.95972931 6:0.017746176 7:-0.40892288 8:-0.35509311 9:-0.11162 10:-0.57115143 
2 2 0 0 2 1:-0.56363875 2:0.59315933 3:-0.65388483 4:-0.056307177 5:-0.65188016 6:0.15078003 7:-0.27820921 8:-0.28456598 9:-0.23909095 10:-0.43044775 
0.18677955403032243 2 2 2 0 1:0.77739205 2:-0.35878025 3:0.29879116 4:0.18229312 5:0.19001693 6:0.69426421 7:0.52729011 8:0.23921248 9:-0.5726303 10:-0.2873812 
2 2 0 0 2 1:-0.2181187 2:0.63864987 3:0.14054526 4:0.59589113 5:-0.46769718 6:-0.49494944 7:-0.38910319 8:-0.25313516 9:-0.42990275 10:-0.37923239 
2 2 0 0 2 1:0.17534053 2:-0.033529309 3:0.70202033 4:-0.12057909 5:-0.34004108 6:0.86573054 7:-0.11707821 8:-0.2930187 9:-0.72644841 10:0.11451818 
0.18190872348281648 0 0 0 1.1454596244977457 1:-0.18264143 2:0.27270002 3:-0.13326719 4:-0.085966841 5:-0.51769447 6:0.059287318 7:0.13514283 8:0.04018428 9:-2.5211509 10:1.5942384 
2 0 0 0 2 1:-1.7918916 2:1.5750809 3:-1.3400984 4:-0.012032822 5:-0.90516043 6:0.27284839 7:-0.31988652 8:-0.33597126 9:-0.19965799 10:-0.16667875 
2 2 0 0 0 1:0.022865007 2:0.23405248 3:0.19788883 4:0.17192585 5:-0.39421591 6:0.37302833 7:0.024962075 8:-0.098866441 9:-0.84980754 10:0.88428076 
0.88621042066145139 2 0.17508429775176618 0.030815477406057779 0 1:0.47041559 2:-0.52907692 3:0.97130813 4:-0.19307511 5:0.084978144 6:-0.4081836 7:1.4381552 8:1.2201508 9:2.009946 10:0.66246227 
2 2 2 2 2 1:0.34705464 2:-0.15916309 3:0.50628838 4:-0.40902942 5:-0.35263277 6:0.93284365 7:0.59422276 8:0.25121726 9:0.94840664 10:-0.018239892 
2 2 0 0 2 1:-1.1967012 2:1.4662724 3:-1.3504221 4:0.29092642 5:-0.80296481 6:-0.10319369 7:-0.50617023 8:-0.40261021 9:0.045230832 10:-0.3456295 
2 2 0 0 2 1:-1.5333474 2:1.6062121 3:-1.356998 4:0.073429801 5:-0.87341891 6:0.2744666 7:-0.28221584 8:-0.3090844 9:-0.51695229 10:-0.49403561 
2 2 0 0 2 1:-0.3781952 2:0.47432527 3:-0.85459292 4:-0.18465148 5:-0.62710335 6:0.51615471 7:-0.013095107 8:-0.1528986 9:-0.5206328 10:-0.51823214 
2 2 2 2 2 1:0.18895689 2:0.059637031 3:-0.69253862 4:-0.22310246 5:-0.41673401 6:-0.11543672 7:-0.048973337 8:-0.069530597 9:0.07965545 10:-0.35446614 
2 2 0 0 2 1:-0.22785643 2:0.38450562 3:-1.0820163 4:-0.14695209 5:-0.57347009 6:0.19760165 7:-0.12050823 8:-0.17718453 9:-0.0035792689 10:-0.32589055 
2 2 0 0 2 1:-0.0068452516 2:0.059373653 3:-0.32942101 4:-0.43101354 5:-0.51883543 6:-0.21131564 7:0.096010846 8:0.056835447 9:0.73441762 10:0.13021647 
2 2 2 0 2 1:0.28679303 2:-0.22248386 3:0.62842582 4:-0.44507424 5:-0.34384263 6:-0.18876717 7:-0.074252273 8:-0.075828639 9:-0.41369481 10:0.074678658 
2 2 0 0 1.528574364272143 1:0.12357644 2:0.14903875 3:-0.4796931 4:-0.08368735 5:-0.41949608 6:0.84935682 7:0.29240291 8:0.023212076 9:-0.37760688 10:-0.15034881 
0.5245524409566672 1.7883367347258805 0 0 0 1:0.427944 2:-0.41517934 3:-0.32092215 4:-0.14103289 5:-0.021547494 6:-0.41814836 7:0.4325779 8:0.35637767 9:-2.3228407 10:1.5207971 
2 2 2 2 0.30024605386214714 1:0.36699349 2:0.11740619 3:-0.26504579 4:0.18980615 5:-0.26729495 6:0.22577127 7:0.37350108 8:0.19801629 9:-0.021747052 10:-0.47238961 
2 2 2 2 2 1:0.62289845 2:-0.12963161 3:0.85589034 4:0.35319992 5:0.013469377 6:0.25536747 7:0.14917708 8:0.016816309 9:-0.68220247 10:-0.31071251 
0 2 0.039659141131393981 1.2198615855115997 0 1:0.35436815 2:0.26451816 3:-0.14793223 4:0.99817198 5:-0.08266498 6:0.6033038 7:1.0493694 8:0.69609027 9:-0.16171178 10:-0.39736268 
2 1.0141470476847736 0 0 2 1:-0.62999203 2:0.95582832 3:-0.76768438 4:0.1527646 5:-0.68782006 6:-1.633083 7:-0.43123415 8:-0.094950781 9:-1.0423411 10:-0.34373598 
0.019830622589336724 0.25900352502872198 0 0 0 1:0.28966279 2:-0.31784154 3:0.83050461 4:0.079328292 5:-0.040778214 6:1.1615222 7:3.189501 8:2.7233772 9:0.092158037 10:0.41261138 
2 2 2 0.14164341101146874 2 1:-0.22913964 2:0.19028467 3:-0.14401684 4:-0.4647072 5:-0.60435641 6:0.26858994 7:-0.046544136 8:-0.13444193 9:-0.42050225 10:-0.57497408 
0.31122474749368628 2 0.47336461709571315 0 0.54874799950827391 1:0.23861342 2:-0.57985839 3:0.94157484 4:-0.21656839 5:0.064361729 6:0.068251347 7:0.86469471 8:0.63071087 9:1.1416996 10:2.5579214 
2 2 2 2 2 1:0.76261823 2:-0.47582865 3:0.21527494 4:-0.16628651 5:0.12108065 6:0.2308814 7:0.64043662 8:0.41397192 9:0.11028135 10:-0.53856222 
1.523283922512507 0 0 0 0 1:-1.637269 2:1.9999608 3:-1.1713599 4:-0.010208533 5:-0.91243685 6:0.29005251 7:-0.13078667 8:-0.20098236 9:-0.10461398 10:-0.4756123 
0 0.27198332808616216 0 0 0 1:-0.64025508 2:0.99123079 3:-0.34286853 4:0.46852082 5:-0.64239268 6:0.58588676 7:0.2685157 8:0.051465291 9:-1.1187586 10:0.84683467 
2 2 0.482618865052659 0.084835217377513941 2 1:-0.14807925 2:0.46698802 3:-0.77369142 4:-0.0085950973 5:-0.54892386 6:-1.8341669 7:0.11125913 8:0.33717411 9:-0.39021261 10:-0.47265043 
0 0 0 0 0.75260829187851386 1:-1.4778424 2:0.41895962 3:-1.0904246 4:0.033025948 5:-0.74333835 6:1.7562355 7:0.90211459 8:0.35881116 9:-1.0094316 10:0.11068446 
0 0 0 0 0.62468321275749106 1:-1.6968127 2:0.99079377 3:-1.4480178 4:-0.3023853 5:-0.88321484 6:-0.31075035 7:-0.086956698 8:-0.064408566 9:-0.77273307 10:0.93097429 
0 0 0 0.025072807543855533 0.31504808256117206 1:-2.2272213 2:1.2381272 3:-1.6787294 4:-0.3032543 5:-0.95253242 6:0.057839446 7:0.05253674 8:-0.022822905 9:-1.7573233 10:1.4319961 
2 2 0 0 2 1:-1.3179285 2:1.2432625 3:-1.2576762 4:-0.11841624 5:-0.84320585 6:-0.27016736 7:-0.37955221 8:-0.28462387 9:0.14324504 10:-0.44560774 
2 0.52326352062132109 0 0 2 1:-1.4113799 2:0.88711459 3:-1.021711 4:-0.45859016 5:-0.86264666 6:-0.027286891 7:-0.33138113 8:-0.29197129 9:-1.0006705 10:-0.28796568 
0 0.069982784876858176 0 0 0 1:0.16802484 2:-0.027600594 3:-0.083509543 4:0.83068848 5:-0.0021910979 6:0.23196731 7:0.92412494 8:0.65304686 9:-1.3857231 10:1.1295715 
0.76096281318216752 2 0 0 0 1:-0.34971996 2:1.0797402 3:0.27864021 4:1.0788798 5:-0.50731175 6:0.75428701 7:0.29726182 8:0.044079809 9:-0.060621689 10:-0.4460788 
0.46474515959345447 0.15240345524342022 0.011740819909291784 0.064222140399292818 1.0410632685944703 1:-1.8935376 2:2.699095 3:-1.164452 4:0.44833354 5:-0.93342316 6:-2.5358736 7:-0.50180316 8:-0.0022641589 9:-0.24651186 10:-0.70010761 
0 1.0655772523345104 0 0 0.02804688402854686 1:-0.34507994 2:-0.24027513 3:0.23901266 4:-0.17036661 5:-0.35758865 6:2.324078 7:0.89016246 8:0.24155261 9:-1.1018496 10:0.10406812 
0.011236311349300745 0 0 0.10634059062129253 0 1:0.62656978 2:-0.99862377 3:1.3204714 4:0.28953872 5:1.8512834 6:-2.7949787 7:2.7792349 8:2.9365513 9:0.55085848 10:0.27723552 
0 1.0239166448947914 0 0 0 1:0.079596663 2:0.38918337 3:0.19955232 4:0.22975517 5:-0.42465371 6:1.8724698 7:0.57664249 8:0.064169083 9:-1.6156955 10:-0.0030429194 
2 2 2 1.4954217231490761 2 1:0.24105719 2:0.049885413 3:0.95456609 4:-0.14962839 5:-0.37759608 6:0.17130574 7:0.082777399 8:-0.01950377 9:-0.72155627 10:-0.59606312 
0.75689069448788771 1.1636612214320694 0.22534680260748877 0 0.95236694414321821 1:0.31141597 2:0.085377089 3:1.1603271 4:0.37672598 5:-0.19781666 6:-1.6150059 7:0.87725937 8:0.92322143 9:2.4711475 10:1.8642708 
2 1.1912063959785917 0 0 2 1:-0.56954546 2:1.0494399 3:-0.29415618 4:0.075086674 5:-0.70720485 6:-0.46041344 7:-0.25943256 8:-0.16580609 9:-0.74230205 10:-0.57174468 
2 0 0 0 0 1:-2.1829129 2:3.1100223 3:-1.4952285 4:0.60863132 5:-0.96314906 6:0.19832558 7:-0.23663074 8:-0.26266939 9:-0.3459245 10:-0.49570664 
0.69034864023555076 2 0 0 0 1:-0.20770496 2:-0.096479719 3:0.18119943 4:-0.16070389 5:-0.40041273 6:-0.37156096 7:0.064653818 8:0.060274832 9:-0.94083354 10:-0.64833297 
0 0 0 0 1.7635879944295894 1:-0.72757663 2:0.76600634 3:-0.57005082 4:-0.29232337 5:-0.74803129 6:0.23002971 7:0.15506499 8:0.025798373 9:-1.167654 10:-0.3503464 
2 0 0 0 1.2606818719060704 1:-1.5213027 2:1.5414031 3:-0.91143958 4:-0.13070855 5:-0.88701004 6:-0.29011818 7:-0.42803783 8:-0.31561946 9:-0.64115507 10:-0.49459047 
0.17969417307317856 0.23147389742614849 0.0075395361772669254 0.070447941019233407 0.29765536488763322 1:-1.6404637 2:1.7143753 3:-1.0617733 4:0.67357833 5:-0.84069992 6:0.6323677 7:-0.092308505 8:-0.23287791 9:0.19153103 10:2.8963382 
2 1.5114391136147136 0 0 1.1104584330088747 1:-1.3892544 2:1.1166609 3:-0.76118632 4:-0.38048451 5:-0.87040117 6:0.80302493 7:-0.06348503 8:-0.24183808 9:-0.29285096 10:-0.62022391 
0.91240406212046021 0.86095656544359433 0 0 2 1:-1.0048506 2:1.2496382 3:-0.44324324 4:-0.075853382 5:-0.8048207 6:-0.95090126 7:-0.17793155 8:-0.02390613 9:1.2308852 10:0.80706027 
0.29105494480472921 0 0 0 2 1:-2.0731435 2:1.215605 3:-2.082972 4:-0.82912874 5:-0.97652928 6:0.16372571 7:-0.26465137 8:-0.27699935 9:-0.50627426 10:-0.041455468 
2 2 0 0 2 1:-1.2542618 2:0.51024831 3:-1.1791457 4:-0.86979813 5:-0.869559 6:-0.35416521 7:-0.3549768 8:-0.25273015 9:-0.12323324 10:-0.64968354 
0 0.640098474145257 0 0 0 1:-0.13305299 2:-0.54410458 3:0.2329582 4:-0.28535055 5:-0.12245237 6:-1.1204726 7:0.45252 8:0.49002796 9:-1.4689766 10:0.73981625 
0 0.77103846000946696 1.1678913746067396 0.049779026729351673 0.74997519506955179 1:0.830239 2:-0.77712779 3:1.0505426 4:0.10012806 5:0.88251193 6:-2.1923022 7:0.97444307 8:1.0985167 9:-3.0704545 10:2.1432634 
0.46071248202931131 0.49862653390331846 0.045487355393222594 0.099155807010965116 0.82042427093320203 1:-0.32619819 2:-0.22780918 3:-0.72072958 4:-0.44743605 5:-0.46040106 6:6.2188315 7:3.6898269 8:2.2795922 9:-0.24497159 10:0.40446004 
0.1362072012115399 0.37738149217759964 0.047648938880478345 0.10425401019365957 0.31839914346719256 1:-3.3354429 2:-0.67192718 3:-2.8263198 4:0.98593293 5:-0.97813064 6:-2.078921 7:-0.98947851 8:-0.4008074 9:0.015675277 10:0.1655907 
1.4700973889254152 0.58859807449072443 0.054035005118901198 0.10096865190439704 0.50261659311950235 1:0.62926544 2:-0.85518358 3:1.4272932 4:0.44049339 5:1.3361121 6:-2.1491854 7:-1.0514689 8:-0.42943315 9:0.18441611 10:4.1203023 
2 0 0 0 0 1:-1.1639638 2:0.92973679 3:-0.39770612 4:0.64090147 5:-0.68867226 6:0.46509594 7:-0.40593608 8:-0.43126343 9:-0.66615896 10:-0.61214461 
2 2 0 0 0 1:-0.12104473 2:0.42636748 3:0.69557957 4:1.2880382 5:-0.20502526 6:-0.033142254 7:-0.30852984 8:-0.27452541 9:-0.60084301 10:-0.64073378 
1.8064793804102772 2 0 0 0 1:0.39732629 2:-0.57211608 3:1.1393117 4:-0.074893894 5:0.18873903 6:-0.56406402 7:0.13766088 8:0.14890957 9:1.1107952 10:0.73124481 
2 2 0 0 0 1:-1.1420257 2:0.82159577 3:-0.4959051 4:0.39936337 5:-0.70217954 6:0.23831239 7:-0.44125032 8:-0.41637062 9:-0.218641 10:-0.54114354 
2 0 0 0 2 1:-1.6408554 2:1.0380082 3:-1.074812 4:0.071664968 5:-0.84126426 6:-0.092334655 7:-0.58834681 8:-0.46147267 9:-0.40869322 10:-0.50631587 
2 0 0 0 0.10784792028559312 1:-0.7358162 2:0.53795104 3:-0.61827105 4:0.54734823 5:-0.54748108 6:-1.306588 7:-0.59023014 8:-0.25882413 9:-2.0009968 10:0.18340747 
0 2 0 0 0 1:-0.41940513 2:0.50811817 3:-0.030067366 4:0.99494269 5:-0.3791558 6:-0.038337558 7:-0.15915661 8:-0.16475783 9:-0.41469343 10:-0.21577498 
2 2 0 0 1.7300969968653717 1:-0.2699915 2:0.041882603 3:0.43884585 4:0.16159542 5:-0.37546059 6:0.1215458 7:-0.51427115 8:-0.44720187 9:-0.93828441 10:-0.40219484 
2 0 0 0 2 1:-1.1930739 2:1.029407 3:-0.6726268 4:0.53200521 5:-0.72304006 6:-0.27344637 7:-0.65637846 8:-0.47695659 9:-0.59658859 10:-0.45415183 
1.1783395149095248 0.13266756927396431 0.029771785382702358 0.053901028344460172 0.37822520363605577 1:-1.9760335 2:-0.11357439 3:-1.1652636 4:0.61313171 5:-0.63478133 6:0.31377206 7:-0.11481482 8:-0.19330327 9:-2.183436 10:3.4175495 
2 0 0 0 2 1:-1.5434645 2:1.1900674 3:-1.0919912 4:0.17581615 5:-0.83211466 6:-0.32177973 7:-0.68248149 8:-0.48643603 9:-0.33915318 10:-0.44061798 
2 0 0 0 0 1:-0.6019546 2:0.5739341 3:0.13598233 4:0.67597652 5:-0.50565521 6:0.20213689 7:-0.46940849 8:-0.42986507 9:-0.76320002 10:-0.18159443 
1.3405144592016502 0 0 0 0 1:0.066230422 2:-0.10097815 3:0.60980916 4:1.3264938 5:0.20577649 6:0.0044172403 7:-0.088526937 8:-0.11980372 9:0.53904449 10:0.58395879 
2 0 0 0 1.5311841346147665 1:-0.41556283 2:0.50238112 3:0.092535741 4:0.73338685 5:-0.43447332 6:-1.5341167 7:-0.94243442 8:-0.45739164 9:-2.1917383 10:0.38894542 
2 0 0 0 0 1:-1.8713103 2:1.972451 3:-1.0861679 4:1.3270305 5:-0.84093379 6:0.54645355 7:-0.46756706 8:-0.48917167 9:-0.39390271 10:-0.43061783 
2 0 0 0 0 1:-1.9522863 2:1.5502262 3:-1.3058167 4:0.3196385 5:-0.89552234 6:-0.27289277 7:-0.70245108 8:-0.5083163 9:-0.43536998 10:-0.46051395 
0.0024425065763235697 0 0 0 0.11847162246251802 1:-0.84728748 2:0.87079202 3:-0.45898105 4:0.63046607 5:-0.62696441 6:0.036845307 7:-0.59885949 8:-0.49105515 9:-1.7845947 10:0.47540245 
0.45809592331763338 0.30432549873463183 0.036166769512784164 0.080991432491676466 0.32796062059176778 1:-1.6997473 2:-0.31310472 3:-0.40428248 4:2.1344001 5:-0.13183811 6:0.15904142 7:-0.036517022 8:-0.10776738 9:-2.7498971 10:5.7335895 
1.1750875158359508 0 0.0066023703385092464 0.0096120666940735129 0.73505372595423335 1:-0.72710077 2:0.064985896 3:0.089083836 4:1.7596988 5:-0.073735595 6:-0.51015209 7:-0.23882284 8:-0.14238656 9:-2.6268238 10:3.0064786 
2 0 0 0 0 1:-1.8040775 2:1.0334958 3:-1.1028285 4:0.2256054 5:-0.84652418 6:0.33597985 7:-0.50531767 8:-0.47846165 9:-0.071748797 10:-0.32924387 
2 0 0 0 0 1:-0.8092584 2:0.57191503 3:-0.4043191 4:0.65812144 5:-0.54918245 6:-0.42668655 7:-0.61486183 8:-0.42243919 9:-0.68882909 10:-0.30165599 
2 0 0 0 2 1:-1.3971597 2:1.5607214 3:-1.1565301 4:1.0939678 5:-0.7546571 6:0.3281656 7:-0.42784918 8:-0.42265956 9:1.2331791 10:-0.090805386 
0 0 0 0 2 1:-1.1796235 2:1.2857623 3:-0.7741187 4:0.79491151 5:-0.72224104 6:0.30979041 7:-0.5105609 8:-0.47752181 9:-0.99077731 10:-0.16374838 
2 0 0 0 0 1:-1.5530637 2:1.2753719 3:-0.67494312 4:0.44188684 5:-0.81381608 6:0.02713605 7:-0.60702587 8:-0.49498334 9:-0.41529945 10:-0.53725261 
2 0 0 0 2 1:-0.93171376 2:0.99679643 3:-0.31101286 4:0.94779524 5:-0.61613935 6:-0.32318502 7:-0.63536644 8:-0.45411482 9:0.46293685 10:-0.076368298 
2 0 0 0 0 1:-1.4662057 2:0.96106084 3:-0.55230885 4:0.15073664 5:-0.80165648 6:0.40500926 7:-0.39847338 8:-0.41536334 9:-0.67626945 10:-0.50295314 
0.28491199249894567 0.35782455279654984 0.029480994471601785 0.068554739532701928 0.41967322074404351 1:-0.50464462 2:-0.19065614 3:0.44017079 4:1.6799692 5:0.19248546 6:0.60287796 7:0.15904503 8:-0.036864687 9:-4.2939685 10:4.802177 
2 0 0 0 1.5281138435693649 1:-1.7825212 2:1.2374141 3:-1.1065574 4:0.29094493 5:-0.85516762 6:-0.92281681 7:-0.80080165 8:-0.4646008 9:-0.86910919 10:-0.46714331 
2 0 0 0 0 1:-1.6795844 2:1.3807606 3:-1.1169649 4:0.43881737 5:-0.84017599 6:0.026220484 7:-0.58469251 8:-0.47945872 9:-0.91194711 10:-0.44721897 
0.51741686306616208 0.090952375759236662 0 0.065394929749766156 0 1:0.27165945 2:-0.039226385 3:1.0444153 4:1.4909869 5:0.28311395 6:0.48138449 7:-0.2918022 8:-0.3524372 9:-4.0042274 10:3.075144 
2 0 0 0 0 1:-0.9969436 2:1.5956662 3:-0.4849388 4:1.8476354 5:-0.60990933 6:0.11381672 7:-0.46716208 8:-0.41288583 9:-1.4114106 10:-0.23336972 
2 0 0 0 2 1:-1.7434623 2:1.174024 3:-1.1688322 4:0.22866664 5:-0.85066747 6:-0.59427769 7:-0.78143003 8:-0.50673514 9:-0.80902278 10:-0.4398477 
2 0 0 0 0 1:-1.8662327 2:1.1535043 3:-1.2007711 4:0.056402315 5:-0.88015115 6:0.57702919 7:-0.44047493 8:-0.47552266 9:-0.80891254 10:-0.50175043 
2 0 0 0 2 1:-1.4087675 2:1.0639512 3:-0.85759251 4:0.17162663 5:-0.80287831 6:-0.044043876 7:-0.51202537 8:-0.41690796 9:-0.73190885 10:-0.34327452 
1.9568985869072744 0 0 0 0 1:-1.1377908 2:0.25738138 3:-0.38470799 4:1.4502509 5:-0.37578475 6:0.29546074 7:-0.028143746 8:-0.12533404 9:-0.61666777 10:2.9729437 
2 0 0 0 0 1:-2.2190829 2:1.5965235 3:-1.4292097 4:0.51333482 5:-0.91724364 6:0.06857073 7:-0.58158595 8:-0.48466688 9:-0.33912733 10:-0.60923944 
0 2 0 0 0 1:-0.35385603 2:-0.020765064 3:0.012365169 4:0.21819812 5:-0.34711081 6:-0.31620116 7:-0.43918924 8:-0.31903758 9:-1.0688759 10:-0.36731089 
2 2 0 0 2 1:-0.52983212 2:-0.13381476 3:0.006964694 4:-0.39663605 5:-0.52376999 6:-0.043383817 7:-0.54207332 8:-0.43792886 9:-0.48745411 10:-0.3185355 
2 2 0 0 2 1:-0.94799111 2:0.41911061 3:-0.50328656 4:-0.09604995 5:-0.68125712 6:0.072914345 7:-0.40087119 8:-0.35895373 9:-0.22625787 10:-0.17530486 
2 2 0.10896926655691297 0 0.63066784060329584 1:0.089681093 2:-0.12152938 3:0.7409476 4:0.38938949 5:-0.11908235 6:-0.14186038 7:-0.29876185 8:-0.24872449 9:3.164061 10:2.1372401 
1.1476672394864962 0 0 0 0 1:-1.2267057 2:1.2388749 3:-0.54759355 4:0.78453076 5:-0.7246717 6:0.92620048 7:-0.2603123 8:-0.40902152 9:-0.74268546 10:-0.55694716 
2 0 0 0 0 1:-0.25625448 2:0.31929676 3:-0.026336486 4:0.84430424 5:-0.30457179 6:-0.75209571 7:-0.57954439 8:-0.34322147 9:-1.2211228 10:-0.45081965 
0 2 0 1.6026441264957827 0 1:1.0505528 2:-0.96116678 3:1.6320499 4:-0.070897747 5:1.4824481 6:0.75432959 7:0.78240365 8:0.43998269 9:0.26029053 10:0.37775119 
2 0 0 0 0 1:-1.1741071 2:1.3549135 3:-0.59856803 4:-0.027420259 5:-0.82693504 6:-0.9718954 7:-0.2430681 8:-0.068066686 9:-0.42685503 10:-0.59832 
0.0066441185107448848 0.067863228115998833 0.012275185630392626 0.031856710607881353 0.60656774408576819 1:-1.701234 2:0.88075968 3:-0.85601962 4:-0.30337469 5:-0.87479155 6:-0.17910049 7:0.21840983 8:0.14590892 9:-2.7002854 10:2.3118082 
0.47304570852098016 0.11346948143918666 0.018280292006114075 0.039035676395908089 0.87571613799311832 1:-2.6882713 2:4.014989 3:-2.1975301 4:0.77891473 5:-1.0147211 6:-0.16061884 7:-0.43934108 8:-0.34581347 9:-0.10219963 10:-0.49920761 
2 1.6935439478114935 0 0 2 1:-1.7763365 2:1.1901445 3:-1.6069825 4:-0.44770066 5:-0.91906386 6:0.11015446 7:-0.49594412 8:-0.43242209 9:-0.26965959 10:-0.49285375 
0 0 0.040466112836580616 0.19423776180728469 0.10791168402337521 1:1.0391957 2:-1.0481316 3:1.6013954 4:-0.70091576 5:1.0527852 6:2.8910688 7:2.5687652 8:1.7272915 9:1.8317846 10:1.6381293 
1.3268377866432548 0.1891718405855832 0.0028263747291880277 0.037786826349224756 0.66696749020316193 1:-1.4917551 2:0.67962243 3:-0.84623726 4:-0.85532288 5:-0.90404472 6:-4.0044413 7:-0.51908096 8:0.2040707 9:-0.57122757 10:-0.72347391 
0.93844777930023049 0.5384596515848431 0 0.048574230846479702 0.65557881052632339 1:0.28351306 2:-0.28064819 3:1.1856564 4:-0.56499595 5:-0.36311096 6:-0.077025541 7:0.93849011 8:0.71910006 9:0.044104322 10:2.16225 
2 2 0 0 2 1:-0.68565334 2:0.054973815 3:-0.3668521 4:-0.88716662 5:-0.74507797 6:-0.11066726 7:0.10896847 8:0.049460119 9:-0.16475082 10:-0.30317319 
2 0 0 0 0 1:-2.2566841 2:1.330725 3:-1.7865646 4:-0.67750635 5:-0.98334962 6:-0.27304181 7:-0.48822384 8:-0.360885 9:-0.35531019 10:-0.62114857 
0 1.4943011158766462 0 0 0.43710263511189229 1:-1.1191928 2:0.38053921 3:-1.1729075 4:-0.51264223 5:-0.77639806 6:0.50661579 7:0.24874892 8:0.050014723 9:1.0605729 10:0.8129122 
2 2 2 0 2 1:0.41006722 2:-0.50014602 3:0.55217217 4:-0.27006973 5:-0.0094822912 6:-0.32537812 7:0.021581711 8:0.019658888 9:0.82339175 10:0.15569962 
2 2 0.0036342903176921413 0 2 1:0.15944701 2:-0.12916715 3:0.23956004 4:-0.14527641 5:-0.30128135 6:0.70512325 7:0.045642368 8:-0.14202501 9:0.35524835 10:0.24251799 
2 2 0 0 0 1:-0.086518592 2:0.32440297 3:0.53823436 4:0.32587607 5:-0.40666407 6:-0.021814788 7:0.078999574 8:0.01116489 9:0.54602795 10:0.47646528 
0 1.7138149418731883 0 0 0 1:0.34502562 2:-0.67190564 3:1.1543503 4:0.15685126 5:0.4791755 6:0.19285348 7:1.5460203 8:1.216144 9:1.6377784 10:1.2013871 
2 1.8978070964962235 0 0 2 1:-0.72885273 2:1.739181 3:-0.087467261 4:0.97190691 5:-0.69128781 6:0.19951795 7:-0.17380252 8:-0.21688318 9:-0.15974448 10:-0.43903103 
0.030628877801097899 0 0 0 0 1:-0.59858043 2:-0.19038477 3:-0.45417897 4:-0.49859322 5:-0.54572053 6:-0.090844198 7:0.92112933 8:0.70655375 9:-2.5522684 10:2.0876676 
2 0 0 0 0.75259081420870955 1:-1.5181017 2:2.6166916 3:-1.0997195 4:1.5205189 5:-0.82171559 6:-0.28775475 7:-0.65746542 8:-0.47524885 9:-0.39586844 10:-0.40616648 
0 0 0 0 2 1:-1.7869311 2:1.5776126 3:-1.2404621 4:-0.12785062 5:-0.91415304 6:0.0075046137 7:-0.41832464 8:-0.35998013 9:-0.67276032 10:-0.21171484 
0.14064825319958424 0 0 0 1.2971533601417045 1:-1.3235791 2:0.25252097 3:-0.59077728 4:-0.74527015 5:-0.82372845 6:-0.59385185 7:-0.39095349 8:-0.23772468 9:-1.1090828 10:-0.043113575 
0 0 0 0 0.80909838186948624 1:-0.32664599 2:0.1926127 3:0.66549373 4:-0.50930736 5:-0.6311171 6:0.76340008 7:0.43751503 8:0.15417937 9:-1.3326041 10:0.31546761 
2 0 0 0 2 1:-0.10682441 2:-0.096872398 3:0.59318128 4:-0.29284942 5:-0.42574842 6:-1.3598824 7:-0.086653491 8:0.11096207 9:-1.8507993 10:0.32716536 
0.82488053291732755 2 1.5443664225125233 1.0560826599444841 0.84668732549973569 1:0.92470535 2:-0.96982641 3:1.3251445 4:-0.48030668 5:0.95681823 6:1.6069131 7:0.80137578 8:0.30080097 9:2.3004427 10:1.7713225 
2 2 0 0 0 1:-0.41895264 2:0.20553418 3:0.32230356 4:-0.071765252 5:-0.53312434 6:-0.20273487 7:-0.093261908 8:-0.087606604 9:-0.099327605 10:-0.32894 
0.25895374580232139 0 0.5733562103629064 0.31775701864431594 0.091984556921159422 1:0.81702904 2:-0.62338433 3:1.7872411 4:1.8615566 5:1.7866928 6:1.8689566 7:0.59395007 8:0.079039722 9:1.2925443 10:-0.2355287 
2 2 0 0 0 1:-0.45874355 2:0.18070685 3:0.08306316 4:0.58675228 5:-0.35993852 6:0.15026902 7:-0.46471365 8:-0.41751489 9:-0.30082925 10:-0.52398536 
0 0.09820849824721388 0 0 0 1:0.25857093 2:-0.33606453 3:1.0284984 4:1.0949283 5:0.44100472 6:-0.12248445 7:-0.4918045 8:-0.38924453 9:-0.81206199 10:-0.092802722 
0.38357311122699123 0.4712939656847534 0.048174892067674828 0.10304364413241424 0.78493840202183029 1:0.90549101 2:-0.80809845 3:1.6192283 4:0.0050840801 5:0.91870217 6:2.0336307 7:0.78951499 8:0.21105658 9:6.9755598 10:7.3353533 
0 0.53994110145194441 0 0 0 1:-0.67769539 2:0.68221719 3:-0.44611694 4:-0.0059711108 5:-0.67569048 6:-2.1356223 7:0.12317131 8:0.39405819 9:-0.23323498 10:0.66663989 
2 2 0 0 2 1:-0.58385082 2:0.77630214 3:-0.097966284 4:0.085107866 5:-0.66276181 6:-0.13751677 7:-0.26771461 8:-0.2270167 9:0.75256196 10:-0.19011664 
0 1.3574996343462953 0 0 0 1:-0.48930938 2:0.55141511 3:0.33049434 4:-0.2953512 5:-0.6829207 6:-0.35165273 7:-0.22230396 8:-0.15728111 9:-0.38252377 10:-0.42435031 
2 2 0 0 2 1:-1.2933249 2:1.0718773 3:-0.75062889 4:-0.30806814 5:-0.84826412 6:0.961503 7:-0.033053836 8:-0.247517 9:-0.29822128 10:-0.36470705 
0 0 0 0.0058107454192023048 0 1:-2.6949381 2:1.9954239 3:-2.0524948 4:-0.50714795 5:-1.0222922 6:-0.06623038 7:-0.49323597 8:-0.39994943 9:-0.30029197 10:-0.65935021 
0 0 0.057395744555490173 0.022887331121184067 0 1:-2.6263756 2:2.1095491 3:-2.0679708 4:-0.48556346 5:-1.0187929 6:-0.067380161 7:-0.52603395 8:-0.42263547 9:-0.036527506 10:-0.54969511 
2 0 0 0 1.362736536450738 1:-0.71277755 2:0.58317443 3:-0.036704848 4:-0.053044791 5:-0.67082049 6:-1.3345021 7:-0.46418497 8:-0.16656794 9:-1.3675119 10:-0.05177911 
1.1797518692220943 0.67254687965756865 0 0 1.9511265562706999 1:-1.6248562 2:1.170991 3:-1.077634 4:-0.43461481 5:-0.90265881 6:1.1803871 7:-0.077544726 8:-0.32050506 9:0.43376212 10:-0.37847856 
2 0 0 0 2 1:-1.8800506 2:1.5307782 3:-1.5465467 4:-0.35744814 5:-0.93837447 6:-0.29243904 7:-0.61330595 8:-0.4442618 9:-0.50637558 10:-0.56942553 
0 0.1147721533549583 0 0 0 1:-1.4703725 2:-0.27713253 3:-0.83617924 4:-0.83792563 5:-0.75982431 6:0.17226389 7:-0.059976769 8:-0.1276632 9:-0.026108579 10:0.37842594 
0 2 0 0 0 1:-0.22704829 2:-0.33573754 3:0.3058676 4:-0.087197307 5:-0.23542088 6:0.086669126 7:-0.24484396 8:-0.24919133 9:-0.98553746 10:-0.17576127 
0.25414720358963866 0 0 0 0 1:-0.13109964 2:-0.66529628 3:0.57933861 4:0.26756867 5:0.34110703 6:-0.27380833 7:-0.38784434 8:-0.28990421 9:-1.6203967 10:0.95627362 
2 0 0 0 0 1:-0.84215387 2:0.8009209 3:-0.27524036 4:0.69586185 5:-0.60142334 6:-0.53167854 7:-0.65823212 8:-0.43427234 9:-1.4012042 10:-0.27005458 
2 2 0 0 0 1:-1.1508292 2:0.37320926 3:-0.39270848 4:0.011227258 5:-0.68412511 6:-0.2136152 7:-0.64671034 8:-0.48061891 9:-0.66535768 10:-0.5341993 
2 0 0 0 0 1:-0.87515508 2:0.63257121 3:-0.35781043 4:0.88577981 5:-0.53625402 6:-0.69786439 7:-0.5685719 8:-0.34474349 9:-0.47899873 10:-0.50230794 
2 1.94801192966147 0 0 2 1:-0.32900208 2:0.24191498 3:0.11394038 4:0.96175445 5:-0.2572397 6:0.61384346 7:-0.37020977 8:-0.4322096 9:0.60730375 10:-0.46686876 
2 2 0 0 0 1:0.17631188 2:-0.51772802 3:0.2989761 4:0.53281128 5:0.3797801 6:0.30849158 7:0.53393549 8:0.31289209 9:2.5832327 10:1.8129369 
0.28114787801249563 0.95398018447697841 0.9847593924940663 2 0.50885576300515367 1:1.1158263 2:-0.83541636 3:1.9954789 4:1.0373361 5:2.1391661 6:0.42438519 7:0.05348346 8:-0.086249033 9:-0.0627388 10:-0.20398801 
2 2 0 0 0 1:-0.36075085 2:0.29287594 3:0.23183505 4:0.71775218 5:-0.35029982 6:-0.75873888 7:-0.60325828 8:-0.35843608 9:-0.9549705 10:0.19609868 
2 2 0 0 0.84038849404231086 1:-0.99794228 2:0.59563101 3:-0.75147799 4:0.50509604 5:-0.61802961 6:0.41650707 7:-0.45890463 8:-0.46010721 9:-0.51014079 10:-0.54142812 
0.42361720103881467 0.46107186443020032 0 0 2 1:0.70363802 2:-0.55901642 3:1.4354854 4:0.21669218 5:0.45712441 6:0.80715562 7:0.11260431 8:-0.10910714 9:-1.9094274 10:0.37431073 
0.47474753780471535 0 0 0 0 1:-1.1507078 2:1.3106252 3:-0.56280589 4:1.5633413 5:-0.62815835 6:0.0086331019 7:-0.57328608 8:-0.46854075 9:-0.58391915 10:-0.47004531 
2 2 0 0 2 1:-0.71149102 2:0.63228577 3:-0.24560376 4:0.68641596 5:-0.54029808 6:-0.20480022 7:-0.5375693 8:-0.40699457 9:-0.10035683 10:-0.50144383 
2 2 0 0 1.3127621012961428 1:-0.099671633 2:0.48981341 3:-0.28283221 4:1.4558506 5:-0.18621823 6:-0.14217977 7:-0.54267484 8:-0.42130374 9:-0.83988324 10:-0.22998454 
2 0 0 0 0 1:-1.8120889 2:1.397339 3:-1.1934904 4:0.71270321 5:-0.83545017 6:-0.068253142 7:-0.64809712 8:-0.50658796 9:-0.81437058 10:-0.46749896 
0.97908848218460376 0 0 0 0 1:-0.76455532 2:1.04606 3:-0.043297359 4:1.408401 5:-0.52432454 6:0.48706952 7:-0.44190926 8:-0.46059528 9:-1.1187304 10:-0.37196952 
2 0 0 0 0 1:-2.0617617 2:1.711135 3:-1.3425484 4:0.69041621 5:-0.89268731 6:-0.24044341 7:-0.69768279 8:-0.51064942 9:-0.50587551 10:-0.55449078 
0.3716365999552439 0.40954847144864909 0.0490777964477149 0.10467063816370883 0.64522484753574882 1:-1.2255526 2:0.3796513 3:-0.38312892 4:2.7119086 5:-0.22479611 6:0.18344231 7:-0.21618571 8:-0.24515207 9:-4.2519256 10:8.3035453 
0.84605352642651233 0 0 0 0 1:0.28555704 2:-0.23837833 3:0.8738264 4:0.92599723 5:0.25967182 6:-0.67007803 7:-0.4934451 8:-0.29717545 9:-1.7815222 10:0.33502967 
2 0 0 0 0 1:-1.2683567 2:1.7786295 3:-0.56003161 4:0.55048618 5:-0.81135073 6:0.2308814 7:-0.30774821 8:-0.31988608 9:-0.04422541 10:-0.38090599 
2 2 0 0 2 1:-0.53061596 2:0.33774222 3:-0.0012507404 4:-0.45382047 5:-0.67986429 6:0.0051624683 7:-0.17156438 8:-0.18142561 9:-0.80280421 10:-0.41952778 
0.11315107171008153 0 0 0.2401355445518164 0 1:0.1143569 2:-0.93319194 3:0.90907723 4:0.504924 5:1.389698 6:0.054475274 7:4.0033708 8:3.8648169 9:-0.94383185 10:0.15455397 
1.3844492955520527 2 0 0 0.27806668511541122 1:-0.84058178 2:0.14952239 3:-0.33870379 4:-0.24357662 5:-0.63129956 6:0.98511608 7:0.17086526 8:-0.096193724 9:-0.078430506 10:0.027202716 
1.0176364441228476 0 0 0 0 1:-2.2543279 2:2.1969515 3:-1.7308775 4:-0.1214833 5:-0.97818502 6:-0.12212248 7:-0.49775715 8:-0.39347029 9:-0.18122091 10:-0.48491205 
1.2468803204919614 0 0 0 0 1:-2.1540526 2:1.9132499 3:-1.4768005 4:-0.21721345 5:-0.96676688 6:0.22394014 7:-0.37005153 8:-0.3633432 9:-0.16727606 10:-0.56390124 
0.31919455446805017 0.31498945113676069 0.034367963523907544 0.079113958722849265 0.39433504887845428 1:-1.2844563 2:0.80505745 3:-0.88548329 4:0.34330449 5:-0.72997093 6:2.7943382 7:1.2204524 8:0.43982858 9:-2.6822756 10:1.5622711 
1.1074950968461743 0.33071145322117912 0.0042350113435322134 0.041287943009252565 1.7774610318852413 1:-1.8785857 2:1.0513143 3:-1.1813315 4:-0.71202168 5:-0.94461541 6:-2.4551122 7:-1.0194985 8:-0.36130984 9:-1.9101518 10:0.73157893 
0 0.093700656794490189 0 0 0 1:-1.2359749 2:0.65131574 3:-0.54867289 4:0.35988327 5:-0.69441034 6:1.0933232 7:0.1489625 8:-0.13271306 9:1.2324554 10:2.1923075 
0.21224702224276532 0 0 0 1.3999718683698461 1:-2.3860054 2:1.2156641 3:-1.9149222 4:-0.91024357 5:-1.003377 6:-1.1233683 7:-0.5908099 8:-0.28928957 9:-0.72356192 10:-0.41833758 
0.17198950954157888 0.30520139592942075 0 0 0 1:0.12541318 2:-0.36401538 3:0.51247814 4:-0.041913292 5:-0.10094657 6:0.76659392 7:0.95556863 8:0.58553022 9:2.8663993 10:2.0977449 
2 2 0 0 2 1:-0.87853501 2:0.99291236 3:-0.8609533 4:0.012122193 5:-0.74809749 6:-0.4429964 7:-0.49862413 8:-0.33918066 9:-0.82790491 10:-0.26965332 
1.9281895195403351 0.45549418280354759 0 0 0.08117400159744885 1:0.050026346 2:-0.098121012 3:-0.17552415 4:-0.22542169 5:-0.37047169 6:-0.16796466 7:1.7340176 8:1.45541 9:2.1616577 10:1.3802959 
1.7496767679334881 0 0 0 0.51494932551970474 1:-1.706586 2:1.4612528 3:-1.1273169 4:0.34782427 5:-0.8580403 6:0.63134567 7:-0.32304991 8:-0.40155028 9:0.95769151 10:1.3631536 
2 2 0 0 2 1:-0.66744388 2:0.89249009 3:-0.29958871 4:0.11345412 5:-0.68938423 6:-0.17795071 7:-0.41193467 8:-0.32345137 9:1.3242156 10:0.97164564 
2 2 0 0 0 1:-0.24350955 2:0.79498644 3:0.30582371 4:0.91511499 5:-0.44836204 6:-0.010338275 7:-0.024820488 8:-0.069544033 9:-0.36347648 10:0.51037051 
2 2 0 0 2 1:-0.84610868 2:0.5154161 3:-1.0077313 4:-0.26022687 5:-0.71654518 6:-0.43479889 7:-0.72738381 8:-0.49752313 9:-0.58136032 10:-0.56478754 
0 0 0 0.077152389579622588 0 1:0.59056578 2:-0.68114261 3:1.1376065 4:0.65755041 5:0.95904671 6:0.091140495 7:0.68579296 8:0.4759877 9:-0.50300123 10:-0.24402917 
0.2300865872662565 0.21454568455477788 0.014202733685797305 0.03378233882457822 0.27656541026271347 1:-0.7042199 2:-0.62229388 3:0.18568941 4:1.9075309 5:0.80030446 6:0.33934402 7:3.8066572 8:3.579888 9:-1.3171317 10:-0.36739513 
0 0.058529294349947095 0 0 0.14237376312816821 1:0.50412346 2:-0.97519967 3:1.1118456 4:0.50933854 5:1.8802618 6:-3.9883657 7:1.6979558 8:2.0234282 9:1.847835 10:0.74433595 
0.52454573130713955 0 0 0 0.048017531750508227 1:-0.40145718 2:-0.98809134 3:0.39918604 4:0.43612601 5:1.2080201 6:1.1322241 7:2.7617037 8:2.2621029 9:-1.2969735 10:0.58864498 
2 2 2 2 1.6608578671494867 1:0.48200506 2:0.11828454 3:0.93082332 4:1.3778989 5:0.17821826 6:-0.47182608 7:-0.40053317 8:-0.26517955 9:-0.42994172 10:-0.46841146 
2 2 0 0 2 1:-0.035701098 2:0.39910536 3:0.19074589 4:0.37103438 5:-0.41170279 6:0.5216481 7:-0.15018829 8:-0.25614297 9:-0.81780598 10:-0.28692438 
0.85177912966357738 0.10189491266534061 0.02309893509331569 0.013309938853246087 0.27348579185239119 1:-0.66262301 2:-0.47066595 3:-0.19255952 4:-0.026716297 5:-0.22648395 6:0.49511798 7:0.13463524 8:-0.036596415 9:-2.5509528 10:4.022252 
2 2 2 0 2 1:0.1606985 2:-0.2818027 3:0.77546081 4:-0.46165538 5:-0.34066447 6:-0.01725825 7:-0.27318484 8:-0.25173986 9:-1.0689217 10:-0.37674491 
2 0.87150397337151442 0 0 0 1:-0.39956293 2:0.78093674 3:0.48143236 4:0.54327089 5:-0.54765189 6:-0.36225626 7:-0.3452741 8:-0.244406 9:-0.61271812 10:-0.37573306 
2 0 0 0 0 1:-1.8713656 2:1.2845955 3:-1.3679876 4:-0.58470455 5:-0.94447658 6:0.21114351 7:-0.32216198 8:-0.32680837 9:-0.3745068 10:-0.45274691 
0 0 0 0 1.3186297988780695 1:-1.8307071 2:1.6936212 3:-1.3636604 4:-0.20312058 5:-0.92981857 6:-0.30998383 7:-0.40387886 8:-0.29511146 9:-0.64510768 10:-0.27162416 
0.77262590160083089 1.2871729040977902 0 0 2 1:1.0334642 2:-1.0132232 3:1.6765596 4:-0.67415112 5:0.93209789 6:0.37928825 7:0.538334 8:0.30403561 9:-1.9241192 10:1.1696664 
1.56904979167956 2 1.9726116414929451 2 0 1:1.3674098 2:-1.0436933 3:2.1098678 4:0.045543372 5:2.3414041 6:-0.31341188 7:0.84020717 8:0.67561704 9:1.3699406 10:0.95881414 
2 2 2 0 2 1:0.20134252 2:-0.23359725 3:0.27855147 4:-0.30411376 5:-0.29447083 6:0.34554006 7:-0.17712026 8:-0.24491185 9:1.0325872 10:0.41422266 
0 0 0 0.039552521534917638 0 1:-2.8586498 2:2.9426029 3:-2.1960009 4:-0.027146844 5:-1.0327197 6:-0.039104079 7:-0.54533781 8:-0.44093401 9:-0.46286479 10:-0.59059168 
0 2 0 0 0 1:0.71619156 2:-0.60460921 3:0.45065918 4:-0.094329255 5:0.32867029 6:-0.77100321 7:0.21704657 8:0.24525647 9:-0.38360486 10:0.85744267 
2 1.035605540483501 0 0 2 1:-0.30972815 2:0.50130848 3:0.23202117 4:-0.038831268 5:-0.58992936 6:0.61056445 7:-0.11862005 8:-0.24855792 9:-1.0193559 10:-0.26896376 
0.66926273632095734 0 0 0 0 1:-2.143739 2:2.2900621 3:-1.6040696 4:-0.021999585 5:-0.96694026 6:0.039272621 7:-0.41135278 8:-0.36054874 9:-0.53972532 10:-0.51996726 
2 0 0 0 2 1:-1.1490677 2:1.0745945 3:-0.45252906 4:-0.13380061 5:-0.81060631 6:-0.22189788 7:-0.48805605 8:-0.36953076 9:-0.33326052 10:-0.46824114 
2 0 0 0 2 1:-1.2261612 2:2.1124197 3:-0.64281687 4:0.92354764 5:-0.79754361 6:-0.13174657 7:-0.44168122 8:-0.35243353 9:-0.99327475 10:-0.13884271 
2 0 0 0 2 1:-1.6615356 2:1.6519623 3:-1.2845275 4:-0.086915206 5:-0.9029722 6:0.32961347 7:-0.43688784 8:-0.42929932 9:-0.82112704 10:-0.41637984 
0.44888305125225608 0 0 0 0 1:-2.3037082 2:1.7980397 3:-1.8585369 4:-0.48560648 5:-0.98969141 6:0.010506818 7:-0.48380579 8:-0.40662183 9:-0.37465601 10:-0.64588308 
2 0 0 0 2 1:-1.4049302 2:1.6996415 3:-0.97925715 4:0.30425965 5:-0.84467844 6:0.083006863 7:-0.4520796 8:-0.39691815 9:-0.36020356 10:-0.3917048 
0.51249998574044353 0.72623943009691916 0 0.047838768582652687 0.11928672569856033 1:-1.5917894 2:-0.0097556046 3:-0.76312136 4:2.444292 5:-0.22283853 6:-1.2673251 7:0.035529255 8:0.1877628 9:-0.60714023 10:2.1634921 
2 2 2 2 0 1:0.32283966 2:-0.4467726 3:0.33638527 4:0.47039355 5:0.30223392 6:0.11158104 7:0.020548774 8:-0.056454211 9:0.023416975 10:-0.51656568 
1.6143062189059991 1.0989174467203211 0 0 2 1:0.72660163 2:-0.6740738 3:0.86268089 4:-0.039603673 5:0.492005 6:0.26394824 7:0.041607285 8:-0.067080823 9:-1.7711624 10:0.9318175 
0 1.2574078374199729 0.64478092485494043 0 0 1:0.72496213 2:-0.75587229 3:0.75751361 4:0.40255473 5:1.0287175 6:-0.072873556 7:-0.069851909 8:-0.092500188 9:0.12275027 10:0.29428189 
0.38723192420833763 0.420465658951092 0.05016454825239771 0.10770176912575535 0.43247815038006959 1:-1.74085 2:2.8951705 3:-0.92719987 4:11.309412 5:-0.29711559 6:0.00094660672 7:0.88548632 8:0.66013872 9:-0.69816595 10:0.85661888 
0.18106490583600132 0.42304178750470989 0 0.048848886450665908 0.3119872268870193 1:-1.7883779 2:-0.35893918 3:-0.45542408 4:2.5042338 5:-0.060984314 6:-0.040913918 7:1.3109807 8:1.0414054 9:-1.1976659 10:1.6091493 
0 0.094126445246400181 0 0 0.077289525132144571 1:-1.8377004 2:-0.57336881 3:-0.37383684 4:1.5893772 5:-0.099007375 6:0.066100832 7:1.1627461 8:0.89024079 9:0.44707782 10:1.7959023 
2 2 2 2 2 1:0.36253069 2:-0.56430325 3:0.78797964 4:-0.37204009 5:-0.010538819 6:-0.83634906 7:-0.52790888 8:-0.29335839 9:-0.38799329 10:-0.13853592 
1.6685344089508656 0.22115352836873153 0 0 0.17851157820281657 1:0.45188904 2:-0.046136693 3:1.147442 4:1.9463802 5:0.5333892 6:0.48206584 7:0.0037211639 8:-0.13417621 9:0.49624676 10:0.96184305 
1.4393135016728222 2 0.46527926462078717 0.53097855158041041 1.1385722421173528 1:1.0644108 2:-0.75330948 3:1.6098252 4:0.60666858 5:1.3700562 6:-0.42359917 7:-0.26854852 8:-0.17867348 9:-0.55071533 10:0.53373762 
0.75570851532918304 0 0 0 0 1:0.31684116 2:-0.80279797 3:0.77386774 4:-0.0025157022 5:0.63369543 6:0.33184916 7:0.087465435 8:-0.044026572 9:-0.73840952 10:1.5323224 
0 2 0 0 0 1:0.1122982 2:-0.27381022 3:0.37978606 4:0.18960567 5:-0.077798936 6:0.5427487 7:-0.25021448 8:-0.33316414 9:-0.99093999 10:0.045676399 
2 2 2 2 2 1:0.3668693 2:-0.36559047 3:0.44289931 4:0.27808384 5:0.12293645 6:-0.044789104 7:-0.38057779 8:-0.32412368 9:-0.42827648 10:-0.37195497 
0 2 0 0 0 1:0.31229253 2:-0.44367817 3:0.43536818 4:-0.085144798 5:0.0044577671 6:-0.150867 7:0.30424032 8:0.20840244 9:-0.040129014 10:-0.0042023601 
0.3117875491681355 0.41141469541988301 0.041790632781567111 0.081187986889034308 0.37751125733696561 1:-0.054188245 2:-0.61249128 3:0.36517388 4:3.9706305 5:2.3685333 6:-0.19110931 7:2.8732653 8:2.6156564 9:0.081994603 10:0.37130482 
0 1.1953770686114069 0 0.096400872830898529 0 1:0.69386123 2:-0.94415558 3:1.2879069 4:1.5228855 5:2.9554151 6:-0.15944776 7:0.91000992 8:0.70882615 9:-0.54583582 10:1.2470111 
2 1.0596478044294073 0.087259296525579913 0 0.74366536699238728 1:0.66308024 2:-0.54519691 3:1.6182732 4:0.99497576 5:0.91102779 6:0.27851212 7:-0.2455884 8:-0.28322205 9:2.4691751 10:2.2035189 
2 2 2 0 2 1:0.58773522 2:-0.48485598 3:1.0587256 4:0.26164712 5:0.33152606 6:0.47742414 7:-0.033360191 8:-0.16129769 9:1.2171838 10:0.33186466 
2 2 0 0 2 1:-0.35809487 2:0.056125849 3:-0.41028973 4:0.11703763 5:-0.41379961 6:-0.88676906 7:-0.55846204 8:-0.30615379 9:-0.21644199 10:-0.14467558 
0.18263247708410529 0.23005343782203586 0 0.057025316756185891 0.42429825208198646 1:0.0012762901 2:-0.769202 3:0.78762362 4:2.5474446 5:2.1913425 6:1.7780174 7:1.4175954 8:0.81145554 9:1.3976432 10:2.0579768 
0.35651961561083562 0.43902353226856039 0.077485781831400008 0.09484644818316626 0.36754365909116055 1:-1.2545508 2:-0.4995199 3:0.59806568 4:2.4477684 5:0.42251555 6:-1.8421089 7:0.12921426 8:0.35224355 9:-3.7077252 10:3.9510452 
2 0 0 0 2 1:-1.5807708 2:1.862461 3:-1.0757461 4:0.69140141 5:-0.84248351 6:0.29467292 7:-0.53643468 8:-0.49288212 9:-0.23403835 10:-0.50238392 
2 2 0 0 2 1:-1.3986195 2:1.3556249 3:-1.2757264 4:0.012584799 5:-0.84678911 6:-0.18223045 7:-0.61964294 8:-0.46749907 9:-0.043073374 10:-0.52316343 
2 2 0 0 2 1:-0.82161715 2:1.1117895 3:-0.70179681 4:0.34404716 5:-0.70717577 6:0.1631934 7:-0.50674143 8:-0.44920647 9:-0.51297178 10:-0.37968218 
0 0.68640104418903303 0.6803069214982298 0 0 1:0.77354734 2:-0.81381812 3:1.0620428 4:0.83931969 5:1.6283248 6:0.83683699 7:0.65869682 8:0.32172675 9:1.418458 10:0.80183529 
0.98206765730141077 0.65014518623263751 0 0 0.67891967188023417 1:0.52741093 2:-0.90521331 3:1.6826458 4:-0.70015256 5:0.3557976 6:-1.6269509 7:1.2574828 8:1.2580504 9:2.767107 10:1.5984151 
0.29558814036615871 0.19651887412003721 0.0036943988606342837 0.018426895159681538 0.14980798989360478 1:0.62952899 2:-0.81657778 3:0.21025751 4:-0.80301513 5:0.10981724 6:-4.9124485 7:3.3729863 8:3.8965196 9:-1.0696813 10:0.35241446 
0.11941448125502908 0.076458042399632581 0.01460813315824017 0.0092349515624561875 0.071819189779717629 1:1.3677808 2:-1.1752425 3:1.2659105 4:-0.27095947 5:3.0560505 6:-4.3975172 7:4.6960687 8:5.4263441 9:0.94168924 10:-0.37450911 
1.0817457839975355 1.7658347568756743 0.1101618828631737 0.26294426796875886 0.99195304379699412 1:1.0832902 2:-0.90203696 3:1.8381491 4:0.19828564 5:1.5428306 6:1.1661213 7:0.52272784 8:0.15048544 9:4.2927455 10:5.1600546 
2 2 2 0 0.57363280352012025 1:0.63734992 2:-0.55597074 3:0.99015789 4:-0.32590832 5:0.084162915 6:0.67160928 7:0.50998479 8:0.22917111 9:3.1231312 10:2.4450539 
0 2 2 2 0 1:1.0044628 2:-0.85131125 3:1.082279 4:0.29695743 5:1.3942129 6:-0.059267821 7:0.62238241 8:0.44949162 9:1.0664685 10:0.56490464 
0.44259786299144854 0.86073113838748261 0.69974274432716377 0.0045136434112504889 0.76703644946867733 1:0.88886567 2:-0.98536654 3:1.5873702 4:-0.20652574 5:1.3411172 6:-0.60043115 7:3.0845772 8:2.9158947 9:-0.9133313 10:0.18695483 
1.8570448790952263 0 0 0 0 1:0.45118997 2:-0.38519716 3:0.54775932 4:0.42020961 5:0.24349923 6:-0.34249707 7:0.3384502 8:0.26831332 9:-2.144954 10:2.6517001 
1.222664167645316 0.63359335268091399 0 0.76600641476598708 0 1:1.1157581 2:-0.91788204 3:1.2150788 4:0.74825515 5:2.266391 6:0.27338069 7:4.969762 8:5.0453164 9:0.31820173 10:-0.11339775 
0.73832066793688811 0 0 0 0 1:1.2917233 2:-1.1192927 3:2.2832677 4:0.97569343 5:4.6719523 6:-1.2613207 7:3.5027205 8:3.4968173 9:0.27797472 10:0.56805278 
0.45935204551059705 0.3900140100859561 0.072024267847090026 0.16629860156270299 0.5096210343244636 1:1.6277159 2:-1.4949188 3:1.0786546 4:-2.1594293 5:1.9251047 6:-2.19688 7:-1.3037473 8:-0.57897446 9:1.1562734 10:-1.0725855 
1.6604796694363171 1.9030108980646607 0 0 0.86287510653604116 1:0.043211979 2:0.15761235 3:0.89679492 4:1.165971 5:-0.05163169 6:-1.5556645 7:-1.024065 8:-0.50650712 9:0.37512786 10:0.82528443 
0.42200757747242273 0.19979172471142886 0 0.059506907740679647 0.16457665287956547 1:0.79336482 2:-0.39404898 3:1.2763278 4:1.3308137 5:0.87978606 6:-4.5102595 7:2.3923449 8:2.7817374 9:0.21582181 10:0.58283464 
2 0 0 0 0 1:0.20516632 2:0.15067134 3:1.1149932 4:1.0147175 5:-0.049442385 6:2.074384 7:0.28312936 8:-0.20967519 9:-0.27396958 10:-0.47797082 
1.3343582188125045 2 2 2 1.4256419158883682 1:0.48126751 2:-0.015534802 3:0.96705668 4:1.4092211 5:0.30373624 6:0.99261094 7:0.012859703 8:-0.21851055 9:0.13325237 10:-0.37763058 
0.26106945010816685 0.15573389458700584 0 0.326249297252034 0.078178219475217553 1:1.2720432 2:-0.79531815 3:2.017533 4:1.8599673 5:2.863775 6:-1.8481133 7:1.7949026 8:1.7918181 9:0.85431089 10:0.23548951 
0.2945789947117875 0.61755177812655482 0 1.1619391898215099 0 1:1.0406175 2:-0.81948034 3:1.4508069 4:1.1029663 5:2.0757203 6:2.3532909 7:1.0918452 8:0.41082842 9:0.026212796 10:-0.025421719 
2 0.0049834298196036516 0 0.01132603118461962 0 1:1.3205263 2:-0.91127019 3:2.3909451 4:1.5023935 5:3.2701221 6:-0.55705887 7:0.63710968 8:0.54672698 9:2.6828071 10:2.5518506 
2 0.80060228291150548 0 0 0 1:-0.47803988 2:0.85345745 3:0.056147815 4:1.5236482 5:-0.39518768 6:-0.16136407 7:-0.55494282 8:-0.4265086 9:-0.38204542 10:-0.13500873 
1.8382849046320953 0 0 0 0 1:1.1739252 2:-0.89045629 3:1.3950012 4:0.50643334 5:1.8858591 6:-3.7136107 7:1.8493922 8:2.1284148 9:1.2585391 10:0.58297861 
0.41129938615469946 0.24492115374159656 0 0.061837699115732198 0.3445933795906409 1:1.4324383 2:-1.0626398 3:1.6927538 4:0.76010024 5:3.7109017 6:-3.6332113 7:3.9808912 8:4.4270061 9:-0.53977552 10:0.10548856 
1.2540043655349851 0.97759697226411224 0 0.14397590919646105 1.333661598293111 1:1.0763197 2:-0.71868091 3:2.1084639 4:0.16759385 5:0.89468419 6:-1.3964412 7:2.0057917 8:1.9235273 9:1.6980705 10:1.2176813 
2 0.32729697013929532 0 0.049187385283475119 0.41271293342335252 1:-0.98431971 2:0.032867272 3:-0.15549622 4:0.39937864 5:-0.47026954 6:-0.29697428 7:-0.30111666 8:-0.22381271 9:-0.14426537 10:3.4704637 
0 2 0 0 0 1:0.37927533 2:-0.56365976 3:0.51612335 4:0.23027857 5:0.35438041 6:-0.055605557 7:-0.27192593 8:-0.2441966 9:-0.40817044 10:0.30454222 
2 2 0 0 0 1:-0.55281808 2:0.59200504 3:0.29012952 4:1.1308179 5:-0.40848165 6:-0.18849037 7:-0.45920754 8:-0.35501953 9:0.19342331 10:0.23019269 
2 2 1.811266273481799 0.75489606685196775 2 1:1.1255328 2:-0.924456 3:1.0536696 4:-0.41273591 5:0.95842774 6:0.5484976 7:0.13722826 8:-0.04405223 9:-0.38447777 10:0.78982378 
0 2 0 0 0 1:0.61814694 2:-0.94324984 3:1.3842658 4:-0.0125493 5:1.2274714 6:0.11083581 7:0.46497053 8:0.29146961 9:2.4688953 10:1.9200926 
2 2 2 0 2 1:-0.13809319 2:0.20912397 3:0.02912044 4:0.16675179 5:-0.41722316 6:-0.22434648 7:-0.16156004 8:-0.13449607 9:-0.19413033 10:-0.37744543 
2 1.4286593515223664 0 0 2 1:-1.3417154 2:2.4194716 3:-0.95047794 4:1.2134741 5:-0.80949843 6:0.37903274 7:-0.51989322 8:-0.4961987 9:0.056637067 10:-0.62165439 
2 1.8587598331220456 0 0 0 1:-1.056179 2:2.4002192 3:-0.59285732 4:2.0872681 5:-0.69365096 6:-0.17494851 7:-0.64291845 8:-0.48467167 9:-0.37233469 10:-0.51026776 
1.6180071717256785 0 0 0 0 1:1.1112971 2:-0.83345101 3:1.8688199 4:1.1614804 5:2.2509193 6:-0.35433555 7:0.86703606 8:0.7054461 9:3.2275612 10:2.7288523 
2 2 2 2 2 1:0.97734678 2:-0.7194396 3:1.5964546 4:0.2059104 5:0.88588974 6:0.03563165 7:-0.16902943 8:-0.18484173 9:0.7558224 10:0.41695476 
1.149035903311723 0.26560509124408277 0 0 0.034182117063284015 1:1.3955411 2:-0.92046223 3:2.2796868 4:1.229995 5:3.0744605 6:-0.81854876 7:1.03338 8:0.92725337 9:3.5807523 10:2.4745903 
0 0 0 0.63943094520799293 0 1:0.76704683 2:-0.37477165 3:1.4974403 4:1.8008516 5:1.0918991 6:-0.21314677 7:0.52546863 8:0.39652504 9:1.6840155 10:1.5401542 
2 0.10543451726513832 0 0 2 1:-1.1379248 2:2.9228161 3:-0.96725699 4:2.222368 5:-0.73995979 6:0.13706784 7:-0.54948023 8:-0.47438393 9:-0.18318856 10:-0.61575944 
2 0 0 0 2 1:-0.75994747 2:1.1802659 3:0.031723849 4:0.88852809 5:-0.62799797 6:0.10551275 7:-0.51721276 8:-0.44646182 9:-0.36080485 10:-0.48360111 
0.89857991789709446 2 2 2 0 1:1.0245966 2:-0.57974362 3:1.2063971 4:1.236784 5:1.3365137 6:-0.42966746 7:-0.047046317 8:-0.014303021 9:0.52557653 10:0.21843165 
0 0 0 0 0.98797077299453817 1:0.29669755 2:-0.90519874 3:0.61660497 4:-1.0522086 5:-0.052208842 6:-0.77800835 7:-0.23885848 8:-0.097312353 9:-1.4987487 10:0.061016604 
2 2 0 0 2 1:0.31743861 2:-0.51706258 3:0.26014199 4:-0.12993826 5:0.06209784 6:-0.043681908 7:-0.39682404 8:-0.33587233 9:0.31480441 10:1.0235721 
1.1994571308710849 2 0 0 2 1:0.14677906 2:-0.65420254 3:0.056831141 4:-0.81624214 5:-0.23943672 6:0.39512967 7:0.10011727 8:-0.045470339 9:-1.5769679 10:0.70296435 
2 2 0 0 2 1:-0.49132851 2:-0.65229834 3:-0.42148797 4:-1.040289 5:-0.50230063 6:-0.077153294 7:-0.51805906 8:-0.4153948 9:-1.0049108 10:-0.26780233 
2 2 0 0 2 1:-0.64041653 2:-0.46818971 3:-0.31054392 4:-0.69385173 5:-0.48975126 6:0.15001351 7:-0.49429849 8:-0.4382135 9:-0.94916609 10:-0.19796857 
2 2 0 0 2 1:-0.76526144 2:-0.30590336 3:-0.65276131 4:-0.50094209 5:-0.52812394 6:0.052793188 7:-0.5182931 8:-0.43805246 9:-0.67657211 10:-0.41258232 
2 2 0 0 2 1:-0.62325109 2:-0.5841812 3:-0.91425685 4:-1.1796297 5:-0.63202526 6:0.1599144 7:-0.39079708 8:-0.36693938 9:-1.121347 10:-0.22949777 
2 2 0 0 0 1:-0.26368806 2:-0.38707895 3:-0.1587328 4:-0.21215594 5:-0.25876245 6:0.35925226 7:-0.38827326 8:-0.40005661 9:-0.77363576 10:-0.31488004 
2 2 0.22336734419210724 0.49583801031879154 2 1:0.17818105 2:-0.75927291 3:-0.0022896573 4:-0.872682 5:-0.15205817 6:0.22653779 7:-0.11417912 8:-0.17754612 9:0.10110298 10:0.15284186 
2 2 0 0 2 1:-0.65376299 2:-0.42816156 3:-0.62164388 4:-0.90893808 5:-0.59717516 6:-0.79489309 7:-0.59922001 8:-0.3496086 9:-1.1943798 10:-0.24242743 
2 2 0 0 2 1:-1.5439812 2:1.0399068 3:-1.3999524 4:-0.054289967 5:-0.84327873 6:0.7123839 7:-0.39422456 8:-0.46686711 9:-0.61869375 10:-0.14408556 
0 2 0 0 0 1:-0.65371764 2:-0.1339361 3:-0.21285163 4:0.23079216 5:-0.35756344 6:-0.17364968 7:-0.52083568 8:-0.40070676 9:-0.84030943 10:-0.32071054 
0 1.8611338323363003 0 0 0 1:0.090172247 2:-0.85924008 3:0.034495074 4:-1.042172 5:-0.1697445 6:0.15989311 7:-0.14338749 8:-0.18754119 9:-0.71114379 10:0.86846436 
0.50626904412132689 0.16722405877241936 0 0 0.0068793857566014005 1:-0.09858191 2:-0.73371256 3:0.57011999 4:1.5444691 5:1.3051187 6:-1.9878116 7:2.2544472 8:2.2659634 9:0.22972175 10:-0.040513501 
0.25390349974073045 0.94692869408954239 0 0 0 1:0.96289712 2:-1.0902791 3:0.13029023 4:-0.93014228 5:0.87175555 6:1.492297 7:1.6616676 8:1.0911343 9:-1.3433656 10:0.59089475 
0 0.88666880094079048 0 0 0 1:1.0506487 2:-0.99221827 3:0.22025994 4:-0.75012124 5:0.75648068 6:0.19638799 7:0.28356613 8:0.1319011 9:-1.2125784 10:0.21692011 
2 0 0 0 0 1:-1.8474293 2:1.5148758 3:-1.2587235 4:0.92679182 5:-0.83273555 6:-0.11722527 7:-0.67406424 8:-0.51581512 9:-0.23373368 10:-0.57430355 
2 0 0 0 0 1:-1.9100071 2:1.4081864 3:-1.131926 4:0.76790434 5:-0.84585284 6:-0.045981469 7:-0.6343061 8:-0.50101782 9:-0.10363207 10:-0.60659747 
1.3091816400595466 0 0 0 0 1:0.38166315 2:-0.65471683 3:1.122874 4:0.12346497 5:0.43958823 6:-0.010700243 7:-0.15288608 8:-0.16491424 9:-1.1316684 10:0.30810022 
2 0 0 0 0 1:-2.1437037 2:1.4538029 3:-1.6368307 4:0.16031174 5:-0.92323917 6:0.19523821 7:-0.5834215 8:-0.5079962 9:-0.042924191 10:-0.60170088 
2 0 0 0 0 1:-2.054848 2:0.97206455 3:-1.2876989 4:1.0634559 5:-0.80430334 6:-0.16140665 7:-0.68139287 8:-0.51318372 9:-0.16012243 10:-0.54752275 
2 0 0 0 0 1:-1.9460058 2:0.99515007 3:-1.2305502 4:0.25516507 5:-0.85975642 6:0.24770226 7:-0.40666197 8:-0.39354606 9:-0.26953624 10:-0.45138417 
2 0 0 0 0 1:-1.9911334 2:0.77313553 3:-1.0245374 4:1.08412 5:-0.76532769 6:-0.2585631 7:-0.65546235 8:-0.47888059 9:-0.42922247 10:-0.39368189 
2 0 0 0 2 1:-1.7581275 2:0.51670097 3:-1.2837705 4:-0.45890265 5:-0.86500507 6:0.14275286 7:-0.5342588 8:-0.46480918 9:0.37711981 10:-0.26046275 
1.1943470615615086 2 0.54125097313436854 0.64014292890588209 1.0385193573296749 1:1.230026 2:-1.1361822 3:1.9103451 4:-0.18510826 5:2.6647981 6:-1.8909532 7:2.4216606 8:2.4209549 9:1.1189574 10:0.22724065 
2 0 0 0 2 1:-1.6544361 2:2.229309 3:-1.1280492 4:1.2722559 5:-0.83213675 6:0.85080469 7:-0.33740424 8:-0.45108403 9:-0.29418686 10:-0.45096561 
2 0 0 0 2 1:-1.3763463 2:1.0875306 3:-0.64657472 4:0.55376903 5:-0.75580496 6:0.21440122 7:-0.46597856 8:-0.42959891 9:0.4209247 10:-0.33163261 
2 0 0 0 2 1:-1.244822 2:0.90320649 3:-0.9247488 4:0.091356132 5:-0.77250297 6:-0.033759729 7:-0.55899977 8:-0.45132522 9:-1.0422381 10:-0.25414893 
0 0.27934802253659641 0.027655978835237387 0.063011615153689873 0.43088159230692075 1:-0.95956637 2:0.81600576 3:-0.46030266 4:1.8089726 5:-0.44879738 6:1.5041355 7:0.17175987 8:-0.19023142 9:-2.8370914 10:2.9198667 
1.0140791062226968 2 1.3160449325969772 2 2 1:0.8127869 2:-0.52220381 3:-0.56109047 4:-0.49098238 5:-0.01409027 6:0.20628888 7:0.4944666 8:0.29869499 9:0.57777931 10:0.54275479 
0.38688547355373154 0.90365051431121579 0 0.4713905825171969 0.18914297074347228 1:0.69538837 2:-0.81317664 3:1.0217149 4:0.070271526 5:0.89573587 6:-1.8477513 7:5.1932599 8:5.6970254 9:-0.20252769 10:-0.24748085 
0 0.80383424026924888 0.67718089588826158 1.0779229208601913 0 1:0.86192049 2:-0.95931965 3:0.92961818 4:-0.13878222 5:1.288745 6:-0.70959641 7:2.2130509 8:2.0158007 9:1.6433268 10:0.69437219 
2 2 2 2 2 1:0.50169633 2:-0.21460191 3:-0.011267067 4:0.048585429 5:-0.085143687 6:-0.21955573 7:0.1944077 8:0.13417016 9:0.71494109 10:0.11418043 
0 0.4262200179590141 0 0.064497364804302043 0.29620458438180869 1:-1.0591541 2:0.78582938 3:-1.1349553 4:0.49857564 5:-0.6676465 6:-0.0024175657 7:1.556872 8:1.2601971 9:2.7181013 10:1.4444258 
0.2248231514107715 0.68644959308240927 0.021977098286221328 0.083735938791772449 0.32200165901682415 1:-1.3101043 2:1.2567162 3:-0.7695707 4:3.3249544 5:-0.44776275 6:0.84094639 7:1.6842389 8:1.2309408 9:1.5249311 10:1.8039654 
1.1720685956727463 2 0 0 0.94050892358921301 1:0.60160459 2:-0.47615319 3:-0.017293677 4:-0.60039978 5:-0.1751003 6:2.7464945 7:1.1166481 8:0.35703746 9:-0.69497244 10:-0.13568601 
0.26584316424948828 0.88557836400922718 0 1.7339912143505789 0 1:0.78556919 2:-0.72957847 3:0.86620146 4:0.17530793 5:0.80236434 6:1.0848702 7:2.0536908 8:1.5437999 9:-0.87212997 10:0.73666379 
0.15085338778091403 0 0.30348162776452842 0.22615019498062156 0.02568344737829751 1:0.40308639 2:-0.51360735 3:0.82664029 4:0.0079090411 5:0.16235003 6:3.3131447 7:2.2487972 8:1.3158422 9:0.13459398 10:0.14572733 
2 2 2 0.33043485007960166 2 1:0.62566638 2:-0.43135658 3:0.16169891 4:-0.57035277 5:-0.19131443 6:-1.0417339 7:0.071336183 8:0.17789865 9:0.89782247 10:0.43137124 
2 2 0 0 2 1:-0.39183328 2:-0.078890615 3:-1.1754543 4:-0.85509164 5:-0.66563998 6:-0.030438141 7:-0.33343135 8:-0.29289768 9:1.0771379 10:1.1150561 
2 2 0 0 2 1:-1.4986661 2:0.1446947 3:-0.91891968 4:-0.36560001 5:-0.76165142 6:-0.35846624 7:-0.56939109 8:-0.4027502 9:0.11174797 10:-0.38565103 
2 2 2 2 2 1:0.76931728 2:-0.34372062 3:0.46680021 4:-0.18188769 5:-0.023195325 6:-0.85612954 7:0.31948591 8:0.33994278 9:0.61607502 10:-0.12319346 
0.89877045732893679 1.5409450891905045 0.25376251059459048 0 0.98492569672470698 1:0.54272075 2:-0.60735662 3:0.28269087 4:-0.66913137 5:-0.10147075 6:-0.16415335 7:1.7227046 8:1.4440064 9:-0.90070066 10:0.73581209 
0.20782243158150895 0.056271643059364759 0.028696416943620413 0.061875275670370683 0.25185806732877464 1:0.70417964 2:-0.87165188 3:1.1378258 4:-0.14968877 5:0.87199469 6:-5.1951667 7:5.1050964 8:6.0707491 9:0.20761792 10:-0.33458848 
2 2 0.14379707294696786 0.19065679621546547 0.19866095553354599 1:0.61241964 2:-0.68876833 3:0.79509779 4:-0.87688161 5:-0.13685285 6:4.2415711 7:1.3503027 8:0.26792643 9:0.57229322 10:-0.40995482 
0.38062874917122985 0.40849213518320437 0.048456272655215515 0.10568362557209487 0.42457403035316787 1:-2.4723157 2:0.78724828 3:-1.0444039 4:-0.66955657 5:-0.98031846 6:1.3244078 7:4.1308675 8:3.7930627 9:0.88959142 10:-0.42861758 
2 0.37047781518732453 0 0.055481145924674229 0.66512316746516775 1:0.13449793 2:-0.59148944 3:0.6901015 4:-0.33365451 5:-0.020804755 6:2.0034383 7:2.082274 8:1.4023346 9:-2.544539 10:0.47815796 
0 0 0 0.059789017974727368 0.4060231347699218 1:0.30220481 2:-0.38472748 3:0.70750649 4:0.0666665 5:0.019099676 6:-0.40085907 7:1.8245231 8:1.5817575 9:-3.1541862 10:1.1229751 
2 2 0 0 2 1:-0.36581219 2:0.32557162 3:0.34761351 4:-0.08238661 5:-0.56296432 6:1.0744796 7:0.075144666 8:-0.1859767 9:-0.031796139 10:-0.64306749 
0 0 0.87307732529016757 0.78501226060638751 0.069402046707352311 1:0.8610611 2:-0.80359116 3:1.5825108 4:0.37149724 5:1.2182052 6:-1.0523587 7:3.8710547 8:3.893719 9:1.0845203 10:0.21247149 
0.11242550590646888 1.3577791304917768 0 0 0.31286179419554666 1:0.048295808 2:-0.47417468 3:0.8676536 4:-0.43003154 5:-0.21263717 6:-3.5591356 7:0.78125151 8:1.1407932 9:0.16864351 10:1.0403019 
0.66951017218277353 0.21312099743416352 0 0.028613471306055505 0.15179374135176965 1:0.43624769 2:-0.6092045 3:1.0225973 4:1.7004325 5:1.3901876 6:-3.4004233 7:3.2482363 8:3.5409263 9:-0.9094196 10:0.34296605 
1.5018521014888178 0.15984718299203821 0.090226485391201691 0.0031721900035259006 0 1:0.71233519 2:-0.20825936 3:1.2424236 4:0.76121051 5:0.29734042 6:4.3513325 7:0.8364246 8:-0.20604833 9:-0.47951908 10:-0.29997134 
2 2 0 0 2 1:-0.64813432 2:0.36187925 3:-0.22431203 4:-0.0088495893 5:-0.60199189 6:0.41182278 7:-0.34341216 8:-0.37728458 9:-0.79109896 10:-0.48528308 
0.22821600730392291 0.020666372203225928 0.022143759807440717 0.15098347812411878 0.099375462130293385 1:0.43919362 2:-0.85129609 3:0.98820855 4:0.91065364 5:1.6256088 6:-0.81286373 7:5.7717626 8:6.322586 9:0.064739925 10:-0.38118413 
2 0.4023453935852741 0 0.047677097701406455 0.45434462670633197 1:-0.33438192 2:0.79275669 3:-0.15462175 4:1.2932998 5:-0.3898559 6:3.0684331 7:0.3859852 8:-0.31942696 9:0.93875059 10:-0.35001165 
0.29960509202030228 0.32024066832225273 0.011942193094776971 0.081289762428077811 0.29026794110762472 1:0.79728303 2:-0.52682021 3:0.98231918 4:0.10142322 5:0.36539232 6:-4.3107726 7:2.6731982 8:3.0460806 9:-3.2532232 10:0.48564537 
2 2 0 0 2 1:-0.43676345 2:-0.027571481 3:-0.086462065 4:-0.74052056 5:-0.65132548 6:-0.8902397 7:-0.70753659 8:-0.40751819 9:-0.62746998 10:-0.068420715 
0.31132723061573425 0.33883791594211465 0.045283762307947353 0 0.32158277866866763 1:0.93843665 2:-0.58815129 3:1.6817067 4:3.4565009 5:2.8752633 6:0.047534007 7:5.3046595 8:5.5315995 9:-0.49983908 10:-0.088759852 
0.19190227037402402 0 0 0 0 1:-1.2633672 2:0.69381485 3:-0.94631748 4:2.9099016 5:-0.33011794 6:-0.95769348 7:-0.28419394 8:-0.10025985 9:-0.50724541 10:0.82468792 
2 2 0 0 2 1:-0.19814046 2:0.32707576 3:-0.96840884 4:-0.24840152 5:-0.57934009 6:0.91593762 7:-0.13099833 8:-0.31236727 9:0.64333139 10:1.0114002 
1.5117816878624089 0 0 0.0010059922971063621 0.49639707478053008 1:0.41424576 2:-0.36657155 3:1.0838877 4:0.88115342 5:0.43967713 6:0.40153863 7:2.1729666 8:1.784453 9:0.96369089 10:1.6242568 
2 0 0 0 0 1:-1.9232842 2:1.3913832 3:-1.4579254 4:0.32521028 5:-0.88146526 6:-0.42272619 7:-0.42838826 8:-0.29325372 9:-0.42511912 10:-0.64049313 
2 0.33704135599171398 0 0 2 1:-1.0830588 2:0.65957618 3:-0.58545378 4:0.39434272 5:-0.66469142 6:0.24672282 7:-0.40244954 8:-0.3903855 9:0.58265751 10:-0.46519667 
2 2 0 0 1.9323403857977808 1:-1.0832561 2:0.094621025 3:-0.58712713 4:-0.15049977 5:-0.63734093 6:-0.33025404 7:-0.5175872 8:-0.37161561 9:0.07986824 10:-0.54087666 
0.28909138702651044 0.30371426751150404 0.041773312321076825 0.099753956340252095 0.34004621751548236 1:0.88252836 2:-0.74335375 3:1.8463032 4:3.7014119 5:3.8372182 6:0.66481706 7:2.0306203 8:1.5965691 9:-1.1389657 10:0.99643273 
0 1.830998159152208 0 0 0.73554213177802585 1:0.46511149 2:-0.51785493 3:0.88790258 4:0.35917256 5:0.3925597 6:-1.3231959 7:0.0040707148 8:0.17306967 9:-1.8479501 10:0.078543387 
2 2 0.65092833733519295 0 2 1:-0.35010406 2:-0.26604805 3:0.027553417 4:-0.39222133 5:-0.42556216 6:-0.44227246 7:-0.54906856 8:-0.37442013 9:0.085363698 10:-0.28836052 
2 2 0.67292031010810394 0 2 1:-0.47254988 2:-0.22731433 3:-0.64065572 4:-0.77745922 5:-0.60252514 6:0.80151318 7:-0.27966601 8:-0.40064622 9:-0.6457859 10:-0.33193275 
2 2 2 0.35847448920100888 2 1:-0.02085913 2:0.1533083 3:-0.26999112 4:0.34529466 5:-0.31688237 6:-0.042702466 7:-0.47976443 8:-0.39457998 9:-0.66063326 10:-0.41898977 
2 2 0 0 0 1:-0.39664793 2:0.32882477 3:0.14777302 4:0.80508951 5:-0.35134671 6:0.0013085746 7:-0.49725605 8:-0.41444212 9:-0.55542836 10:-0.51541029 
2 0 0 0 0 1:-1.6186737 2:0.73970788 3:-1.1116482 4:0.48986462 5:-0.75556176 6:-0.12271867 7:-0.65574981 8:-0.50241045 9:-0.30282268 10:-0.4827186 
2 0 0 0 0 1:-1.2930149 2:0.53100578 3:-1.0364052 4:0.32748915 5:-0.68688037 6:0.1270179 7:-0.60942622 8:-0.51398845 9:-0.62129081 10:-0.48350432 
2 0 0 0 0 1:-1.2603703 2:0.80739728 3:-0.7212225 4:0.91901358 5:-0.64571121 6:0.15571983 7:-0.5768367 8:-0.4965576 9:-0.38889017 10:-0.49407108 
2 0 0 0 2 1:-1.4741687 2:0.86094435 3:-1.2546242 4:0.38308544 5:-0.76215342 6:-0.32674082 7:-0.70406736 8:-0.50020331 9:-0.40663933 10:-0.480724 
2 2 0 0 2 1:-0.91602004 2:0.095635939 3:-0.76153032 4:-0.076306625 5:-0.58998235 6:0.0664628 7:-0.5415679 8:-0.45661272 9:-0.28598935 10:-0.25503965 
2 0 0 0 0 1:-1.3370609 2:0.7465929 3:-1.1558165 4:0.8251225 5:-0.66215347 6:0.29005251 7:-0.56567761 8:-0.51233928 9:-0.27197468 10:-0.40615656 
2 0 0 0 0 1:-1.3963253 2:0.47678251 3:-1.032792 4:0.34658448 5:-0.69184246 6:0.11017575 7:-0.59801145 8:-0.50321297 9:-0.47463441 10:-0.46365871 
2 0 0 0 0 1:-1.4845091 2:0.52415278 3:-1.0357892 4:0.3355224 5:-0.71817771 6:0.06742095 7:-0.60285725 8:-0.49911101 9:-0.48500872 10:-0.48112287 
2 0 0 0 0 1:-1.4219661 2:0.53166809 3:-1.0335585 4:0.65893063 5:-0.66057166 6:-0.13636699 7:-0.65110593 8:-0.49689488 9:-0.60701872 10:-0.44440267 
2 0 0 0 0 1:-1.205585 2:0.31976882 3:-1.114023 4:0.38246082 5:-0.61414457 6:0.25279111 7:-0.54921217 8:-0.49441004 9:-0.52651511 10:-0.47789658 
1.2896657100453084 0 0 0 0 1:-1.3455269 2:0.18181908 3:-1.0185007 4:0.11836228 5:-0.65537376 6:-0.31332671 7:-0.61602344 8:-0.44255541 9:-0.74139058 10:0.14205787 
2 0 0 0 0 1:-1.6954879 2:0.63996913 3:-1.2355511 4:0.26805377 5:-0.78126979 6:0.036611093 7:-0.59611557 8:-0.48912715 9:-0.65778531 10:-0.48569683 
2 0 0 0 0 1:-1.6464339 2:0.76747057 3:-1.2855877 4:0.9774819 5:-0.70639568 6:-0.10530162 7:-0.62826139 8:-0.48664254 9:-0.47266571 10:-0.57007615 
2 1.6992155100977675 0 0 0 1:-1.2188679 2:0.26329457 3:-0.71305543 4:0.27132373 5:-0.62280932 6:0.098039177 7:-0.53513649 8:-0.45763448 9:-0.38702389 10:-0.47199359 
2 0 0 0 0 1:-1.6462382 2:0.55926118 3:-1.1519567 4:0.35725653 5:-0.74962833 6:0.21727567 7:-0.57217769 8:-0.50408818 9:-0.40762579 10:-0.51070476 
2 0 0 0 0 1:-1.3703782 2:0.51731258 3:-1.1408466 4:0.49451035 5:-0.67237958 6:-0.37916229 7:-0.71038769 8:-0.49553174 9:-0.31606043 10:-0.54875573 
2 2 0 0 2 1:-1.2175546 2:0.57183346 3:-1.0640887 4:0.41116086 5:-0.66826277 6:0.60398516 7:-0.46395003 8:-0.49684218 9:-0.48721004 10:-0.56766084 
2 0 0 0 0 1:-1.6097629 2:0.46052758 3:-1.2764148 4:0.011346914 5:-0.77467074 6:-0.46128642 7:-0.72001252 8:-0.48805906 9:-0.56055903 10:-0.49170096 
0.40850567808491334 0 0 0 0.58891814945343002 1:-0.40343492 2:-0.2502855 3:0.27684518 4:-0.15143177 5:-0.35836442 6:0.0046301626 7:-0.37381633 8:-0.32785682 9:-2.4997969 10:1.1349881 
2 2 0 0 2 1:-0.98126233 2:-0.05738903 3:-0.6424089 4:-0.18580361 5:-0.57924052 6:0.047555299 7:-0.55895013 8:-0.46537865 9:-0.30954858 10:-0.52658952 
2 0 0 0 0 1:-1.0485604 2:0.44076427 3:-0.74588409 4:0.37723759 5:-0.61456521 6:-0.19732664 7:-0.64685643 8:-0.48351467 9:-0.48340844 10:-0.57981208 
2 2 0 0 2 1:-1.0645234 2:0.59517493 3:-0.89448731 4:0.34636892 5:-0.65677559 6:0.35022435 7:-0.49489076 8:-0.47367884 9:-0.75914545 10:-0.52474979 
2 0 0 0 0 1:-1.2236582 2:0.59336447 3:-0.94973048 4:0.43995935 5:-0.66903247 6:0.17303041 7:-0.52015158 8:-0.46027369 9:-0.47542628 10:-0.50202906 
2 0 0 0 2 1:-1.2930735 2:0.62753786 3:-1.3047173 4:0.32893501 5:-0.7044665 6:-0.032865455 7:-0.63998092 8:-0.5071636 9:-0.62837586 10:-0.44567959 
2 0 0 0 0 1:-1.3108242 2:0.96598678 3:-1.011199 4:0.66787167 5:-0.71488066 6:0.24210241 7:-0.53465855 8:-0.48243727 9:-0.68836275 10:-0.51682711 
2 0 0 0 0 1:-1.5978914 2:0.71900289 3:-1.0441855 4:0.79519842 5:-0.71105155 6:-0.08283832 7:-0.64957295 8:-0.50507669 9:-0.60432416 10:-0.43801514 
2 0 0 0 0 1:-1.4911648 2:1.0378413 3:-1.0123371 4:0.96121621 5:-0.72039508 6:0.13123376 7:-0.5958033 8:-0.5053602 9:-0.55029347 10:-0.46525652 
2 0 0 0 0 1:-1.3244386 2:0.15367769 3:-0.81979172 4:0.18273633 5:-0.63171546 6:-0.14134937 7:-0.64658916 8:-0.49295647 9:-0.84301471 10:-0.33343862 
2 0 0 0 0 1:-1.5445159 2:0.61866143 3:-1.0380946 4:0.66950672 5:-0.69974905 6:-0.012616544 7:-0.6167845 8:-0.49479262 9:-0.7084385 10:-0.40141806 
2 0 0 0 0 1:-1.2782439 2:0.54687655 3:-1.0279806 4:0.41525909 5:-0.67355343 6:0.12033214 7:-0.56515763 8:-0.48232375 9:-0.39172983 10:-0.46858377 
2 0 0 0 0 1:-1.42115 2:0.85916577 3:-1.3608857 4:0.76660011 5:-0.70478124 6:0.10119043 7:-0.57206023 8:-0.48376292 9:-0.39285593 10:-0.55207594 
2 0.49912740609585826 0 0 0 1:-1.4709226 2:0.089738762 3:-1.0262475 4:-0.0021072298 5:-0.67891853 6:0.091459878 7:-0.59656181 8:-0.49896013 9:-0.3292485 10:-0.49016662 
2 0 0 0 0 1:-1.3531876 2:0.55532549 3:-0.9744519 4:0.61815484 5:-0.65801431 6:0.11302891 7:-0.58786561 8:-0.4967256 9:-0.28600675 10:-0.54401344 
2 1.1566373006316404 0 0 1.8020238969226423 1:-1.2907644 2:0.033233138 3:-0.96412293 4:-0.20629728 5:-0.67035684 6:-0.36191558 7:-0.62840985 8:-0.44274809 9:0.70045553 10:0.28709758 
2 2 0 0 0 1:-1.0886432 2:0.041087026 3:-0.72983606 4:0.025283083 5:-0.58316525 6:0.28713548 7:-0.52631988 8:-0.48452748 9:-0.46861018 10:-0.51131348 
2 0 0 0 0 1:-1.2397004 2:0.74302098 3:-0.84265093 4:0.76039446 5:-0.65233059 6:0.19153336 7:-0.57358437 8:-0.50056174 9:-0.58009045 10:-0.53814466 
2 0 0 0 0 1:-1.5737674 2:0.91467327 3:-1.0325411 4:0.66503529 5:-0.7516648 6:-0.17933471 7:-0.66650722 8:-0.49999089 9:-0.54834476 10:-0.51758898 
